digraph Tree {
node [shape=box, style="filled", color="black"] ;
0 [label="SEARCH_I <= 0.5\ngini = 0.061\nsamples = 216698\nvalue = [209862, 6836]\nclass = 0", fillcolor="#e6853f"] ;
1 [label="ZIP_CD_60623 <= 0.5\ngini = 0.034\nsamples = 176738\nvalue = [173709, 3029]\nclass = 0", fillcolor="#e5833c"] ;
0 -> 1 [labeldistance=2.5, labelangle=45, headlabel="True"] ;
2 [label="ZIP_CD_60624 <= 0.5\ngini = 0.027\nsamples = 168880\nvalue = [166583, 2297]\nclass = 0", fillcolor="#e5833c"] ;
1 -> 2 ;
3 [label="INDICATIVE_DRUG_TRANSACTION_I <= 0.5\ngini = 0.021\nsamples = 160335\nvalue = [158608, 1727]\nclass = 0", fillcolor="#e5823b"] ;
2 -> 3 ;
4 [label="PAT_DOWN_I <= 0.5\ngini = 0.018\nsamples = 153429\nvalue = [152061, 1368]\nclass = 0", fillcolor="#e5823b"] ;
3 -> 4 ;
5 [label="GANG_NARCOTIC_RELATED_I <= 0.5\ngini = 0.012\nsamples = 111716\nvalue = [111050, 666]\nclass = 0", fillcolor="#e5823a"] ;
4 -> 5 ;
6 [label="ZIP_CD_60657 <= 0.5\ngini = 0.01\nsamples = 106375\nvalue = [105824, 551]\nclass = 0", fillcolor="#e5823a"] ;
5 -> 6 ;
7 [label="ZIP_CD_60651 <= 0.5\ngini = 0.01\nsamples = 105490\nvalue = [104974, 516]\nclass = 0", fillcolor="#e5823a"] ;
6 -> 7 ;
8 [label="ZIP_CD_60612 <= 0.5\ngini = 0.008\nsamples = 100870\nvalue = [100442, 428]\nclass = 0", fillcolor="#e5823a"] ;
7 -> 8 ;
9 [label="ZIP_CD_60618 <= 0.5\ngini = 0.008\nsamples = 98298\nvalue = [97916, 382]\nclass = 0", fillcolor="#e5813a"] ;
8 -> 9 ;
10 [label="ZIP_CD_60608 <= 0.5\ngini = 0.007\nsamples = 96751\nvalue = [96401, 350]\nclass = 0", fillcolor="#e5813a"] ;
9 -> 10 ;
11 [label="ZIP_CD_60644 <= 0.5\ngini = 0.007\nsamples = 94177\nvalue = [93866, 311]\nclass = 0", fillcolor="#e5813a"] ;
10 -> 11 ;
12 [label="AREA_1 <= 0.5\ngini = 0.006\nsamples = 90902\nvalue = [90631, 271]\nclass = 0", fillcolor="#e5813a"] ;
11 -> 12 ;
13 [label="ZIP_CD_60614 <= 0.5\ngini = 0.008\nsamples = 55452\nvalue = [55221, 231]\nclass = 0", fillcolor="#e5823a"] ;
12 -> 13 ;
14 [label="SUSPECT_NARCOTIC_ACTIVITY_I <= 0.5\ngini = 0.008\nsamples = 55137\nvalue = [54916, 221]\nclass = 0", fillcolor="#e5823a"] ;
13 -> 14 ;
15 [label="BODY_CAMERA_I <= 0.5\ngini = 0.008\nsamples = 55006\nvalue = [54791, 215]\nclass = 0", fillcolor="#e5813a"] ;
14 -> 15 ;
16 [label="NUMBER_OF_PERSONS_DISPERSED_3.0 <= 0.5\ngini = 0.017\nsamples = 7758\nvalue = [7693, 65]\nclass = 0", fillcolor="#e5823b"] ;
15 -> 16 ;
17 [label="VEHICLE_INVOLVED_I <= 0.5\ngini = 0.016\nsamples = 7752\nvalue = [7689, 63]\nclass = 0", fillcolor="#e5823b"] ;
16 -> 17 ;
18 [label="AGE_32.0 <= 0.5\ngini = 0.01\nsamples = 6365\nvalue = [6333, 32]\nclass = 0", fillcolor="#e5823a"] ;
17 -> 18 ;
19 [label="PAT_DOWN_RECEIPT_GIVEN_I <= 0.5\ngini = 0.009\nsamples = 6289\nvalue = [6261, 28]\nclass = 0", fillcolor="#e5823a"] ;
18 -> 19 ;
20 [label="HAIR_STYLE_CODE_CD_24 <= 0.5\ngini = 0.007\nsamples = 5966\nvalue = [5945, 21]\nclass = 0", fillcolor="#e5813a"] ;
19 -> 20 ;
21 [label="NUMBER_OF_PERSONS_DISPERSED_2.0 <= 0.5\ngini = 0.007\nsamples = 5959\nvalue = [5939, 20]\nclass = 0", fillcolor="#e5813a"] ;
20 -> 21 ;
22 [label="AGE_34.0 <= 0.5\ngini = 0.006\nsamples = 5949\nvalue = [5930, 19]\nclass = 0", fillcolor="#e5813a"] ;
21 -> 22 ;
23 [label="COMPLEXION_CODE_CD_9 <= 0.5\ngini = 0.006\nsamples = 5878\nvalue = [5861, 17]\nclass = 0", fillcolor="#e5813a"] ;
22 -> 23 ;
24 [label="CONTACT_HOUR_20 <= 0.5\ngini = 0.003\nsamples = 4663\nvalue = [4656, 7]\nclass = 0", fillcolor="#e58139"] ;
23 -> 24 ;
25 [label="AGE_27.0 <= 0.5\ngini = 0.002\nsamples = 4485\nvalue = [4480, 5]\nclass = 0", fillcolor="#e58139"] ;
24 -> 25 ;
26 [label="HAIR_STYLE_CODE_CD_0 <= 0.5\ngini = 0.002\nsamples = 4430\nvalue = [4426, 4]\nclass = 0", fillcolor="#e58139"] ;
25 -> 26 ;
27 [label="AGE_43.0 <= 0.5\ngini = 0.001\nsamples = 4370\nvalue = [4367, 3]\nclass = 0", fillcolor="#e58139"] ;
26 -> 27 ;
28 [label="ZIP_CD_60622 <= 0.5\ngini = 0.001\nsamples = 4302\nvalue = [4300, 2]\nclass = 0", fillcolor="#e58139"] ;
27 -> 28 ;
29 [label="CONTACT_HOUR_23 <= 0.5\ngini = 0.0\nsamples = 4229\nvalue = [4228, 1]\nclass = 0", fillcolor="#e58139"] ;
28 -> 29 ;
30 [label="gini = 0.0\nsamples = 4038\nvalue = [4038, 0]\nclass = 0", fillcolor="#e58139"] ;
29 -> 30 ;
31 [label="AGE_17.0 <= 0.5\ngini = 0.01\nsamples = 191\nvalue = [190, 1]\nclass = 0", fillcolor="#e5823a"] ;
29 -> 31 ;
32 [label="gini = 0.0\nsamples = 181\nvalue = [181, 0]\nclass = 0", fillcolor="#e58139"] ;
31 -> 32 ;
33 [label="ZIP_CD_60617 <= 0.5\ngini = 0.18\nsamples = 10\nvalue = [9, 1]\nclass = 0", fillcolor="#e88f4f"] ;
31 -> 33 ;
34 [label="gini = 0.0\nsamples = 8\nvalue = [8, 0]\nclass = 0", fillcolor="#e58139"] ;
33 -> 34 ;
35 [label="EVENT_ASSIGNEED_BY_CD <= 2.0\ngini = 0.5\nsamples = 2\nvalue = [1, 1]\nclass = 0", fillcolor="#ffffff"] ;
33 -> 35 ;
36 [label="gini = 0.0\nsamples = 1\nvalue = [1, 0]\nclass = 0", fillcolor="#e58139"] ;
35 -> 36 ;
37 [label="gini = 0.0\nsamples = 1\nvalue = [0, 1]\nclass = 1", fillcolor="#399de5"] ;
35 -> 37 ;
38 [label="CONTACT_HOUR_22 <= 0.5\ngini = 0.027\nsamples = 73\nvalue = [72, 1]\nclass = 0", fillcolor="#e5833c"] ;
28 -> 38 ;
39 [label="gini = 0.0\nsamples = 72\nvalue = [72, 0]\nclass = 0", fillcolor="#e58139"] ;
38 -> 39 ;
40 [label="gini = 0.0\nsamples = 1\nvalue = [0, 1]\nclass = 1", fillcolor="#399de5"] ;
38 -> 40 ;
41 [label="ZIP_CD_60647 <= 0.5\ngini = 0.029\nsamples = 68\nvalue = [67, 1]\nclass = 0", fillcolor="#e5833c"] ;
27 -> 41 ;
42 [label="gini = 0.0\nsamples = 66\nvalue = [66, 0]\nclass = 0", fillcolor="#e58139"] ;
41 -> 42 ;
43 [label="RACE_CODE_CD_1 <= 0.5\ngini = 0.5\nsamples = 2\nvalue = [1, 1]\nclass = 0", fillcolor="#ffffff"] ;
41 -> 43 ;
44 [label="gini = 0.0\nsamples = 1\nvalue = [1, 0]\nclass = 0", fillcolor="#e58139"] ;
43 -> 44 ;
45 [label="gini = 0.0\nsamples = 1\nvalue = [0, 1]\nclass = 1", fillcolor="#399de5"] ;
43 -> 45 ;
46 [label="ZIP_CD_60639 <= 0.5\ngini = 0.033\nsamples = 60\nvalue = [59, 1]\nclass = 0", fillcolor="#e5833c"] ;
26 -> 46 ;
47 [label="gini = 0.0\nsamples = 58\nvalue = [58, 0]\nclass = 0", fillcolor="#e58139"] ;
46 -> 47 ;
48 [label="AGE_19.0 <= 0.5\ngini = 0.5\nsamples = 2\nvalue = [1, 1]\nclass = 0", fillcolor="#ffffff"] ;
46 -> 48 ;
49 [label="gini = 0.0\nsamples = 1\nvalue = [0, 1]\nclass = 1", fillcolor="#399de5"] ;
48 -> 49 ;
50 [label="gini = 0.0\nsamples = 1\nvalue = [1, 0]\nclass = 0", fillcolor="#e58139"] ;
48 -> 50 ;
51 [label="CONTACT_HOUR_2 <= 0.5\ngini = 0.036\nsamples = 55\nvalue = [54, 1]\nclass = 0", fillcolor="#e5833d"] ;
25 -> 51 ;
52 [label="gini = 0.0\nsamples = 53\nvalue = [53, 0]\nclass = 0", fillcolor="#e58139"] ;
51 -> 52 ;
53 [label="BUILD_CODE_CD_4 <= 0.5\ngini = 0.5\nsamples = 2\nvalue = [1, 1]\nclass = 0", fillcolor="#ffffff"] ;
51 -> 53 ;
54 [label="gini = 0.0\nsamples = 1\nvalue = [1, 0]\nclass = 0", fillcolor="#e58139"] ;
53 -> 54 ;
55 [label="gini = 0.0\nsamples = 1\nvalue = [0, 1]\nclass = 1", fillcolor="#399de5"] ;
53 -> 55 ;
56 [label="AGE_20.0 <= 0.5\ngini = 0.022\nsamples = 178\nvalue = [176, 2]\nclass = 0", fillcolor="#e5823b"] ;
24 -> 56 ;
57 [label="AGE_39.0 <= 0.5\ngini = 0.011\nsamples = 176\nvalue = [175, 1]\nclass = 0", fillcolor="#e5823a"] ;
56 -> 57 ;
58 [label="gini = 0.0\nsamples = 172\nvalue = [172, 0]\nclass = 0", fillcolor="#e58139"] ;
57 -> 58 ;
59 [label="COMPLEXION_CODE_CD_2 <= 0.5\ngini = 0.375\nsamples = 4\nvalue = [3, 1]\nclass = 0", fillcolor="#eeab7b"] ;
57 -> 59 ;
60 [label="gini = 0.0\nsamples = 3\nvalue = [3, 0]\nclass = 0", fillcolor="#e58139"] ;
59 -> 60 ;
61 [label="gini = 0.0\nsamples = 1\nvalue = [0, 1]\nclass = 1", fillcolor="#399de5"] ;
59 -> 61 ;
62 [label="EYE_COLOR_CODE_CD_5 <= 0.5\ngini = 0.5\nsamples = 2\nvalue = [1, 1]\nclass = 0", fillcolor="#ffffff"] ;
56 -> 62 ;
63 [label="gini = 0.0\nsamples = 1\nvalue = [1, 0]\nclass = 0", fillcolor="#e58139"] ;
62 -> 63 ;
64 [label="gini = 0.0\nsamples = 1\nvalue = [0, 1]\nclass = 1", fillcolor="#399de5"] ;
62 -> 64 ;
65 [label="HAIR_COLOR_CODE_CD_14 <= 0.5\ngini = 0.016\nsamples = 1215\nvalue = [1205, 10]\nclass = 0", fillcolor="#e5823b"] ;
23 -> 65 ;
66 [label="ZIP_CD_60619 <= 0.5\ngini = 0.015\nsamples = 1209\nvalue = [1200, 9]\nclass = 0", fillcolor="#e5823a"] ;
65 -> 66 ;
67 [label="ZIP_CD_60621 <= 0.5\ngini = 0.01\nsamples = 1145\nvalue = [1139, 6]\nclass = 0", fillcolor="#e5823a"] ;
66 -> 67 ;
68 [label="CONTACT_HOUR_1 <= 0.5\ngini = 0.006\nsamples = 1065\nvalue = [1062, 3]\nclass = 0", fillcolor="#e5813a"] ;
67 -> 68 ;
69 [label="INFORMATION_REFUSED_I <= 0.5\ngini = 0.004\nsamples = 1047\nvalue = [1045, 2]\nclass = 0", fillcolor="#e58139"] ;
68 -> 69 ;
70 [label="CONTACT_HOUR_22 <= 0.5\ngini = 0.002\nsamples = 1028\nvalue = [1027, 1]\nclass = 0", fillcolor="#e58139"] ;
69 -> 70 ;
71 [label="gini = 0.0\nsamples = 1006\nvalue = [1006, 0]\nclass = 0", fillcolor="#e58139"] ;
70 -> 71 ;
72 [label="AGE_59.0 <= 0.5\ngini = 0.087\nsamples = 22\nvalue = [21, 1]\nclass = 0", fillcolor="#e68742"] ;
70 -> 72 ;
73 [label="gini = 0.0\nsamples = 21\nvalue = [21, 0]\nclass = 0", fillcolor="#e58139"] ;
72 -> 73 ;
74 [label="gini = 0.0\nsamples = 1\nvalue = [0, 1]\nclass = 1", fillcolor="#399de5"] ;
72 -> 74 ;
75 [label="CONTACT_HOUR_20 <= 0.5\ngini = 0.1\nsamples = 19\nvalue = [18, 1]\nclass = 0", fillcolor="#e68844"] ;
69 -> 75 ;
76 [label="gini = 0.0\nsamples = 18\nvalue = [18, 0]\nclass = 0", fillcolor="#e58139"] ;
75 -> 76 ;
77 [label="gini = 0.0\nsamples = 1\nvalue = [0, 1]\nclass = 1", fillcolor="#399de5"] ;
75 -> 77 ;
78 [label="AGE_39.0 <= 0.5\ngini = 0.105\nsamples = 18\nvalue = [17, 1]\nclass = 0", fillcolor="#e78845"] ;
68 -> 78 ;
79 [label="gini = 0.0\nsamples = 17\nvalue = [17, 0]\nclass = 0", fillcolor="#e58139"] ;
78 -> 79 ;
80 [label="gini = 0.0\nsamples = 1\nvalue = [0, 1]\nclass = 1", fillcolor="#399de5"] ;
78 -> 80 ;
81 [label="CONTACT_HOUR_23 <= 0.5\ngini = 0.072\nsamples = 80\nvalue = [77, 3]\nclass = 0", fillcolor="#e68641"] ;
67 -> 81 ;
82 [label="CONTACT_HOUR_0 <= 0.5\ngini = 0.049\nsamples = 79\nvalue = [77, 2]\nclass = 0", fillcolor="#e6843e"] ;
81 -> 82 ;
83 [label="AGE_25.0 <= 0.5\ngini = 0.025\nsamples = 78\nvalue = [77, 1]\nclass = 0", fillcolor="#e5833c"] ;
82 -> 83 ;
84 [label="gini = 0.0\nsamples = 75\nvalue = [75, 0]\nclass = 0", fillcolor="#e58139"] ;
83 -> 84 ;
85 [label="NAME_VERIFIED_I <= 0.5\ngini = 0.444\nsamples = 3\nvalue = [2, 1]\nclass = 0", fillcolor="#f2c09c"] ;
83 -> 85 ;
86 [label="gini = 0.0\nsamples = 2\nvalue = [2, 0]\nclass = 0", fillcolor="#e58139"] ;
85 -> 86 ;
87 [label="gini = 0.0\nsamples = 1\nvalue = [0, 1]\nclass = 1", fillcolor="#399de5"] ;
85 -> 87 ;
88 [label="gini = 0.0\nsamples = 1\nvalue = [0, 1]\nclass = 1", fillcolor="#399de5"] ;
82 -> 88 ;
89 [label="gini = 0.0\nsamples = 1\nvalue = [0, 1]\nclass = 1", fillcolor="#399de5"] ;
81 -> 89 ;
90 [label="AGE_21.0 <= 0.5\ngini = 0.089\nsamples = 64\nvalue = [61, 3]\nclass = 0", fillcolor="#e68743"] ;
66 -> 90 ;
91 [label="AGE_31.0 <= 0.5\ngini = 0.061\nsamples = 63\nvalue = [61, 2]\nclass = 0", fillcolor="#e6853f"] ;
90 -> 91 ;
92 [label="HAIR_STYLE_CODE_CD_17 <= 0.5\ngini = 0.032\nsamples = 62\nvalue = [61, 1]\nclass = 0", fillcolor="#e5833c"] ;
91 -> 92 ;
93 [label="gini = 0.0\nsamples = 58\nvalue = [58, 0]\nclass = 0", fillcolor="#e58139"] ;
92 -> 93 ;
94 [label="CONTACT_HOUR_22 <= 0.5\ngini = 0.375\nsamples = 4\nvalue = [3, 1]\nclass = 0", fillcolor="#eeab7b"] ;
92 -> 94 ;
95 [label="gini = 0.0\nsamples = 3\nvalue = [3, 0]\nclass = 0", fillcolor="#e58139"] ;
94 -> 95 ;
96 [label="gini = 0.0\nsamples = 1\nvalue = [0, 1]\nclass = 1", fillcolor="#399de5"] ;
94 -> 96 ;
97 [label="gini = 0.0\nsamples = 1\nvalue = [0, 1]\nclass = 1", fillcolor="#399de5"] ;
91 -> 97 ;
98 [label="gini = 0.0\nsamples = 1\nvalue = [0, 1]\nclass = 1", fillcolor="#399de5"] ;
90 -> 98 ;
99 [label="AGE_57.0 <= 0.5\ngini = 0.278\nsamples = 6\nvalue = [5, 1]\nclass = 0", fillcolor="#ea9a61"] ;
65 -> 99 ;
100 [label="gini = 0.0\nsamples = 5\nvalue = [5, 0]\nclass = 0", fillcolor="#e58139"] ;
99 -> 100 ;
101 [label="gini = 0.0\nsamples = 1\nvalue = [0, 1]\nclass = 1", fillcolor="#399de5"] ;
99 -> 101 ;
102 [label="CONTACT_HOUR_23 <= 0.5\ngini = 0.055\nsamples = 71\nvalue = [69, 2]\nclass = 0", fillcolor="#e6853f"] ;
22 -> 102 ;
103 [label="COMPLEXION_CODE_CD_4 <= 0.5\ngini = 0.029\nsamples = 69\nvalue = [68, 1]\nclass = 0", fillcolor="#e5833c"] ;
102 -> 103 ;
104 [label="gini = 0.0\nsamples = 65\nvalue = [65, 0]\nclass = 0", fillcolor="#e58139"] ;
103 -> 104 ;
105 [label="HAIR_STYLE_CODE_CD_22 <= 0.5\ngini = 0.375\nsamples = 4\nvalue = [3, 1]\nclass = 0", fillcolor="#eeab7b"] ;
103 -> 105 ;
106 [label="gini = 0.0\nsamples = 3\nvalue = [3, 0]\nclass = 0", fillcolor="#e58139"] ;
105 -> 106 ;
107 [label="gini = 0.0\nsamples = 1\nvalue = [0, 1]\nclass = 1", fillcolor="#399de5"] ;
105 -> 107 ;
108 [label="BUILD_CODE_CD_4 <= 0.5\ngini = 0.5\nsamples = 2\nvalue = [1, 1]\nclass = 0", fillcolor="#ffffff"] ;
102 -> 108 ;
109 [label="gini = 0.0\nsamples = 1\nvalue = [1, 0]\nclass = 0", fillcolor="#e58139"] ;
108 -> 109 ;
110 [label="gini = 0.0\nsamples = 1\nvalue = [0, 1]\nclass = 1", fillcolor="#399de5"] ;
108 -> 110 ;
111 [label="HAIR_STYLE_CODE_CD_14 <= 0.5\ngini = 0.18\nsamples = 10\nvalue = [9, 1]\nclass = 0", fillcolor="#e88f4f"] ;
21 -> 111 ;
112 [label="gini = 0.0\nsamples = 9\nvalue = [9, 0]\nclass = 0", fillcolor="#e58139"] ;
111 -> 112 ;
113 [label="gini = 0.0\nsamples = 1\nvalue = [0, 1]\nclass = 1", fillcolor="#399de5"] ;
111 -> 113 ;
114 [label="BUILD_CODE_CD_0 <= 0.5\ngini = 0.245\nsamples = 7\nvalue = [6, 1]\nclass = 0", fillcolor="#e9965a"] ;
20 -> 114 ;
115 [label="gini = 0.0\nsamples = 6\nvalue = [6, 0]\nclass = 0", fillcolor="#e58139"] ;
114 -> 115 ;
116 [label="gini = 0.0\nsamples = 1\nvalue = [0, 1]\nclass = 1", fillcolor="#399de5"] ;
114 -> 116 ;
117 [label="COMPLEXION_CODE_CD_10 <= 0.5\ngini = 0.042\nsamples = 323\nvalue = [316, 7]\nclass = 0", fillcolor="#e6843d"] ;
19 -> 117 ;
118 [label="ZIP_CD_60631 <= 0.5\ngini = 0.031\nsamples = 317\nvalue = [312, 5]\nclass = 0", fillcolor="#e5833c"] ;
117 -> 118 ;
119 [label="AGE_39.0 <= 0.5\ngini = 0.019\nsamples = 312\nvalue = [309, 3]\nclass = 0", fillcolor="#e5823b"] ;
118 -> 119 ;
120 [label="AGE_28.0 <= 0.5\ngini = 0.013\nsamples = 309\nvalue = [307, 2]\nclass = 0", fillcolor="#e5823a"] ;
119 -> 120 ;
121 [label="AGE_30.0 <= 0.5\ngini = 0.007\nsamples = 303\nvalue = [302, 1]\nclass = 0", fillcolor="#e5813a"] ;
120 -> 121 ;
122 [label="gini = 0.0\nsamples = 296\nvalue = [296, 0]\nclass = 0", fillcolor="#e58139"] ;
121 -> 122 ;
123 [label="COMPLEXION_CODE_CD_8 <= 0.5\ngini = 0.245\nsamples = 7\nvalue = [6, 1]\nclass = 0", fillcolor="#e9965a"] ;
121 -> 123 ;
124 [label="gini = 0.0\nsamples = 5\nvalue = [5, 0]\nclass = 0", fillcolor="#e58139"] ;
123 -> 124 ;
125 [label="NAME_VERIFIED_I <= 0.5\ngini = 0.5\nsamples = 2\nvalue = [1, 1]\nclass = 0", fillcolor="#ffffff"] ;
123 -> 125 ;
126 [label="gini = 0.0\nsamples = 1\nvalue = [0, 1]\nclass = 1", fillcolor="#399de5"] ;
125 -> 126 ;
127 [label="gini = 0.0\nsamples = 1\nvalue = [1, 0]\nclass = 0", fillcolor="#e58139"] ;
125 -> 127 ;
128 [label="ZIP_CD_60649 <= 0.5\ngini = 0.278\nsamples = 6\nvalue = [5, 1]\nclass = 0", fillcolor="#ea9a61"] ;
120 -> 128 ;
129 [label="gini = 0.0\nsamples = 5\nvalue = [5, 0]\nclass = 0", fillcolor="#e58139"] ;
128 -> 129 ;
130 [label="gini = 0.0\nsamples = 1\nvalue = [0, 1]\nclass = 1", fillcolor="#399de5"] ;
128 -> 130 ;
131 [label="ZIP_CD_60617 <= 0.5\ngini = 0.444\nsamples = 3\nvalue = [2, 1]\nclass = 0", fillcolor="#f2c09c"] ;
119 -> 131 ;
132 [label="gini = 0.0\nsamples = 2\nvalue = [2, 0]\nclass = 0", fillcolor="#e58139"] ;
131 -> 132 ;
133 [label="gini = 0.0\nsamples = 1\nvalue = [0, 1]\nclass = 1", fillcolor="#399de5"] ;
131 -> 133 ;
134 [label="FITS_DESCRIPTION_I <= 0.5\ngini = 0.48\nsamples = 5\nvalue = [3, 2]\nclass = 0", fillcolor="#f6d5bd"] ;
118 -> 134 ;
135 [label="gini = 0.0\nsamples = 3\nvalue = [3, 0]\nclass = 0", fillcolor="#e58139"] ;
134 -> 135 ;
136 [label="gini = 0.0\nsamples = 2\nvalue = [0, 2]\nclass = 1", fillcolor="#399de5"] ;
134 -> 136 ;
137 [label="FITS_DESCRIPTION_OFFENDER_I <= 0.5\ngini = 0.444\nsamples = 6\nvalue = [4, 2]\nclass = 0", fillcolor="#f2c09c"] ;
117 -> 137 ;
138 [label="gini = 0.0\nsamples = 4\nvalue = [4, 0]\nclass = 0", fillcolor="#e58139"] ;
137 -> 138 ;
139 [label="gini = 0.0\nsamples = 2\nvalue = [0, 2]\nclass = 1", fillcolor="#399de5"] ;
137 -> 139 ;
140 [label="ZIP_CD_60636 <= 0.5\ngini = 0.1\nsamples = 76\nvalue = [72, 4]\nclass = 0", fillcolor="#e68844"] ;
18 -> 140 ;
141 [label="CONTACT_HOUR_18 <= 0.5\ngini = 0.055\nsamples = 71\nvalue = [69, 2]\nclass = 0", fillcolor="#e6853f"] ;
140 -> 141 ;
142 [label="COMPLEXION_CODE_CD_2 <= 0.5\ngini = 0.029\nsamples = 68\nvalue = [67, 1]\nclass = 0", fillcolor="#e5833c"] ;
141 -> 142 ;
143 [label="gini = 0.0\nsamples = 60\nvalue = [60, 0]\nclass = 0", fillcolor="#e58139"] ;
142 -> 143 ;
144 [label="CONTACT_HOUR_20 <= 0.5\ngini = 0.219\nsamples = 8\nvalue = [7, 1]\nclass = 0", fillcolor="#e99355"] ;
142 -> 144 ;
145 [label="gini = 0.0\nsamples = 7\nvalue = [7, 0]\nclass = 0", fillcolor="#e58139"] ;
144 -> 145 ;
146 [label="gini = 0.0\nsamples = 1\nvalue = [0, 1]\nclass = 1", fillcolor="#399de5"] ;
144 -> 146 ;
147 [label="ZIP_CD_60630 <= 0.5\ngini = 0.444\nsamples = 3\nvalue = [2, 1]\nclass = 0", fillcolor="#f2c09c"] ;
141 -> 147 ;
148 [label="gini = 0.0\nsamples = 2\nvalue = [2, 0]\nclass = 0", fillcolor="#e58139"] ;
147 -> 148 ;
149 [label="gini = 0.0\nsamples = 1\nvalue = [0, 1]\nclass = 1", fillcolor="#399de5"] ;
147 -> 149 ;
150 [label="HAIR_STYLE_CODE_CD_22 <= 0.5\ngini = 0.48\nsamples = 5\nvalue = [3, 2]\nclass = 0", fillcolor="#f6d5bd"] ;
140 -> 150 ;
151 [label="gini = 0.0\nsamples = 2\nvalue = [2, 0]\nclass = 0", fillcolor="#e58139"] ;
150 -> 151 ;
152 [label="COMPLEXION_CODE_CD_3 <= 0.5\ngini = 0.444\nsamples = 3\nvalue = [1, 2]\nclass = 1", fillcolor="#9ccef2"] ;
150 -> 152 ;
153 [label="gini = 0.0\nsamples = 2\nvalue = [0, 2]\nclass = 1", fillcolor="#399de5"] ;
152 -> 153 ;
154 [label="gini = 0.0\nsamples = 1\nvalue = [1, 0]\nclass = 0", fillcolor="#e58139"] ;
152 -> 154 ;
155 [label="HAIR_STYLE_CODE_CD_1 <= 0.5\ngini = 0.044\nsamples = 1387\nvalue = [1356, 31]\nclass = 0", fillcolor="#e6843e"] ;
17 -> 155 ;
156 [label="ZIP_CD_60647 <= 0.5\ngini = 0.042\nsamples = 1385\nvalue = [1355, 30]\nclass = 0", fillcolor="#e6843d"] ;
155 -> 156 ;
157 [label="AGE_15.0 <= 0.5\ngini = 0.036\nsamples = 1325\nvalue = [1301, 24]\nclass = 0", fillcolor="#e5833d"] ;
156 -> 157 ;
158 [label="CONTACT_HOUR_22 <= 0.5\ngini = 0.034\nsamples = 1322\nvalue = [1299, 23]\nclass = 0", fillcolor="#e5833d"] ;
157 -> 158 ;
159 [label="COMPLEXION_CODE_CD_8 <= 0.5\ngini = 0.026\nsamples = 1201\nvalue = [1185, 16]\nclass = 0", fillcolor="#e5833c"] ;
158 -> 159 ;
160 [label="EYE_COLOR_CODE_CD_3 <= 0.5\ngini = 0.011\nsamples = 937\nvalue = [932, 5]\nclass = 0", fillcolor="#e5823a"] ;
159 -> 160 ;
161 [label="ZIP_CD_60659 <= 0.5\ngini = 0.009\nsamples = 931\nvalue = [927, 4]\nclass = 0", fillcolor="#e5823a"] ;
160 -> 161 ;
162 [label="AGE_35.0 <= 0.5\ngini = 0.006\nsamples = 925\nvalue = [922, 3]\nclass = 0", fillcolor="#e5813a"] ;
161 -> 162 ;
163 [label="AGE_27.0 <= 0.5\ngini = 0.004\nsamples = 900\nvalue = [898, 2]\nclass = 0", fillcolor="#e58139"] ;
162 -> 163 ;
164 [label="AGE_22.0 <= 0.5\ngini = 0.002\nsamples = 867\nvalue = [866, 1]\nclass = 0", fillcolor="#e58139"] ;
163 -> 164 ;
165 [label="gini = 0.0\nsamples = 833\nvalue = [833, 0]\nclass = 0", fillcolor="#e58139"] ;
164 -> 165 ;
166 [label="COMPLEXION_CODE_CD_3 <= 0.5\ngini = 0.057\nsamples = 34\nvalue = [33, 1]\nclass = 0", fillcolor="#e6853f"] ;
164 -> 166 ;
167 [label="gini = 0.0\nsamples = 31\nvalue = [31, 0]\nclass = 0", fillcolor="#e58139"] ;
166 -> 167 ;
168 [label="CONTACT_HOUR_23 <= 0.5\ngini = 0.444\nsamples = 3\nvalue = [2, 1]\nclass = 0", fillcolor="#f2c09c"] ;
166 -> 168 ;
169 [label="gini = 0.0\nsamples = 2\nvalue = [2, 0]\nclass = 0", fillcolor="#e58139"] ;
168 -> 169 ;
170 [label="gini = 0.0\nsamples = 1\nvalue = [0, 1]\nclass = 1", fillcolor="#399de5"] ;
168 -> 170 ;
171 [label="COMPLEXION_CODE_CD_10 <= 0.5\ngini = 0.059\nsamples = 33\nvalue = [32, 1]\nclass = 0", fillcolor="#e6853f"] ;
163 -> 171 ;
172 [label="gini = 0.0\nsamples = 31\nvalue = [31, 0]\nclass = 0", fillcolor="#e58139"] ;
171 -> 172 ;
173 [label="FITS_DESCRIPTION_OFFENDER_I <= 0.5\ngini = 0.5\nsamples = 2\nvalue = [1, 1]\nclass = 0", fillcolor="#ffffff"] ;
171 -> 173 ;
174 [label="gini = 0.0\nsamples = 1\nvalue = [0, 1]\nclass = 1", fillcolor="#399de5"] ;
173 -> 174 ;
175 [label="gini = 0.0\nsamples = 1\nvalue = [1, 0]\nclass = 0", fillcolor="#e58139"] ;
173 -> 175 ;
176 [label="CONTACT_HOUR_14 <= 0.5\ngini = 0.077\nsamples = 25\nvalue = [24, 1]\nclass = 0", fillcolor="#e68641"] ;
162 -> 176 ;
177 [label="gini = 0.0\nsamples = 24\nvalue = [24, 0]\nclass = 0", fillcolor="#e58139"] ;
176 -> 177 ;
178 [label="gini = 0.0\nsamples = 1\nvalue = [0, 1]\nclass = 1", fillcolor="#399de5"] ;
176 -> 178 ;
179 [label="AGE_21.0 <= 0.5\ngini = 0.278\nsamples = 6\nvalue = [5, 1]\nclass = 0", fillcolor="#ea9a61"] ;
161 -> 179 ;
180 [label="gini = 0.0\nsamples = 5\nvalue = [5, 0]\nclass = 0", fillcolor="#e58139"] ;
179 -> 180 ;
181 [label="gini = 0.0\nsamples = 1\nvalue = [0, 1]\nclass = 1", fillcolor="#399de5"] ;
179 -> 181 ;
182 [label="CONTACT_HOUR_9 <= 0.5\ngini = 0.278\nsamples = 6\nvalue = [5, 1]\nclass = 0", fillcolor="#ea9a61"] ;
160 -> 182 ;
183 [label="gini = 0.0\nsamples = 5\nvalue = [5, 0]\nclass = 0", fillcolor="#e58139"] ;
182 -> 183 ;
184 [label="gini = 0.0\nsamples = 1\nvalue = [0, 1]\nclass = 1", fillcolor="#399de5"] ;
182 -> 184 ;
185 [label="ZIP_CD_60609 <= 0.5\ngini = 0.08\nsamples = 264\nvalue = [253, 11]\nclass = 0", fillcolor="#e68642"] ;
159 -> 185 ;
186 [label="AGE_19.0 <= 0.5\ngini = 0.073\nsamples = 263\nvalue = [253, 10]\nclass = 0", fillcolor="#e68641"] ;
185 -> 186 ;
187 [label="AGE_44.0 <= 0.5\ngini = 0.054\nsamples = 250\nvalue = [243, 7]\nclass = 0", fillcolor="#e6853f"] ;
186 -> 187 ;
188 [label="AGE_55.0 <= 0.5\ngini = 0.047\nsamples = 248\nvalue = [242, 6]\nclass = 0", fillcolor="#e6843e"] ;
187 -> 188 ;
189 [label="AGE_34.0 <= 0.5\ngini = 0.04\nsamples = 245\nvalue = [240, 5]\nclass = 0", fillcolor="#e6843d"] ;
188 -> 189 ;
190 [label="HAIR_STYLE_CODE_CD_13 <= 0.5\ngini = 0.033\nsamples = 240\nvalue = [236, 4]\nclass = 0", fillcolor="#e5833c"] ;
189 -> 190 ;
191 [label="CONTACT_HOUR_0 <= 0.5\ngini = 0.018\nsamples = 221\nvalue = [219, 2]\nclass = 0", fillcolor="#e5823b"] ;
190 -> 191 ;
192 [label="HAIR_STYLE_CODE_CD_15 <= 0.5\ngini = 0.009\nsamples = 210\nvalue = [209, 1]\nclass = 0", fillcolor="#e5823a"] ;
191 -> 192 ;
193 [label="gini = 0.0\nsamples = 199\nvalue = [199, 0]\nclass = 0", fillcolor="#e58139"] ;
192 -> 193 ;
194 [label="AGE_29.0 <= 0.5\ngini = 0.165\nsamples = 11\nvalue = [10, 1]\nclass = 0", fillcolor="#e88e4d"] ;
192 -> 194 ;
195 [label="gini = 0.0\nsamples = 10\nvalue = [10, 0]\nclass = 0", fillcolor="#e58139"] ;
194 -> 195 ;
196 [label="gini = 0.0\nsamples = 1\nvalue = [0, 1]\nclass = 1", fillcolor="#399de5"] ;
194 -> 196 ;
197 [label="HAIR_STYLE_CODE_CD_14 <= 0.5\ngini = 0.165\nsamples = 11\nvalue = [10, 1]\nclass = 0", fillcolor="#e88e4d"] ;
191 -> 197 ;
198 [label="gini = 0.0\nsamples = 10\nvalue = [10, 0]\nclass = 0", fillcolor="#e58139"] ;
197 -> 198 ;
199 [label="gini = 0.0\nsamples = 1\nvalue = [0, 1]\nclass = 1", fillcolor="#399de5"] ;
197 -> 199 ;
200 [label="PAT_DOWN_RECEIPT_GIVEN_I <= 0.5\ngini = 0.188\nsamples = 19\nvalue = [17, 2]\nclass = 0", fillcolor="#e89050"] ;
190 -> 200 ;
201 [label="AGE_25.0 <= 0.5\ngini = 0.105\nsamples = 18\nvalue = [17, 1]\nclass = 0", fillcolor="#e78845"] ;
200 -> 201 ;
202 [label="gini = 0.0\nsamples = 16\nvalue = [16, 0]\nclass = 0", fillcolor="#e58139"] ;
201 -> 202 ;
203 [label="CONTACT_HOUR_19 <= 0.5\ngini = 0.5\nsamples = 2\nvalue = [1, 1]\nclass = 0", fillcolor="#ffffff"] ;
201 -> 203 ;
204 [label="gini = 0.0\nsamples = 1\nvalue = [1, 0]\nclass = 0", fillcolor="#e58139"] ;
203 -> 204 ;
205 [label="gini = 0.0\nsamples = 1\nvalue = [0, 1]\nclass = 1", fillcolor="#399de5"] ;
203 -> 205 ;
206 [label="gini = 0.0\nsamples = 1\nvalue = [0, 1]\nclass = 1", fillcolor="#399de5"] ;
200 -> 206 ;
207 [label="BUILD_CODE_CD_0 <= 0.5\ngini = 0.32\nsamples = 5\nvalue = [4, 1]\nclass = 0", fillcolor="#eca06a"] ;
189 -> 207 ;
208 [label="gini = 0.0\nsamples = 4\nvalue = [4, 0]\nclass = 0", fillcolor="#e58139"] ;
207 -> 208 ;
209 [label="gini = 0.0\nsamples = 1\nvalue = [0, 1]\nclass = 1", fillcolor="#399de5"] ;
207 -> 209 ;
210 [label="BUILD_CODE_CD_0 <= 0.5\ngini = 0.444\nsamples = 3\nvalue = [2, 1]\nclass = 0", fillcolor="#f2c09c"] ;
188 -> 210 ;
211 [label="gini = 0.0\nsamples = 2\nvalue = [2, 0]\nclass = 0", fillcolor="#e58139"] ;
210 -> 211 ;
212 [label="gini = 0.0\nsamples = 1\nvalue = [0, 1]\nclass = 1", fillcolor="#399de5"] ;
210 -> 212 ;
213 [label="ZIP_CD_60628 <= 0.5\ngini = 0.5\nsamples = 2\nvalue = [1, 1]\nclass = 0", fillcolor="#ffffff"] ;
187 -> 213 ;
214 [label="gini = 0.0\nsamples = 1\nvalue = [0, 1]\nclass = 1", fillcolor="#399de5"] ;
213 -> 214 ;
215 [label="gini = 0.0\nsamples = 1\nvalue = [1, 0]\nclass = 0", fillcolor="#e58139"] ;
213 -> 215 ;
216 [label="SEX_CODE_CD_1 <= 0.5\ngini = 0.355\nsamples = 13\nvalue = [10, 3]\nclass = 0", fillcolor="#eda774"] ;
186 -> 216 ;
217 [label="ZIP_CD_60619 <= 0.5\ngini = 0.444\nsamples = 3\nvalue = [1, 2]\nclass = 1", fillcolor="#9ccef2"] ;
216 -> 217 ;
218 [label="gini = 0.0\nsamples = 2\nvalue = [0, 2]\nclass = 1", fillcolor="#399de5"] ;
217 -> 218 ;
219 [label="gini = 0.0\nsamples = 1\nvalue = [1, 0]\nclass = 0", fillcolor="#e58139"] ;
217 -> 219 ;
220 [label="ZIP_CD_60621 <= 0.5\ngini = 0.18\nsamples = 10\nvalue = [9, 1]\nclass = 0", fillcolor="#e88f4f"] ;
216 -> 220 ;
221 [label="gini = 0.0\nsamples = 9\nvalue = [9, 0]\nclass = 0", fillcolor="#e58139"] ;
220 -> 221 ;
222 [label="gini = 0.0\nsamples = 1\nvalue = [0, 1]\nclass = 1", fillcolor="#399de5"] ;
220 -> 222 ;
223 [label="gini = 0.0\nsamples = 1\nvalue = [0, 1]\nclass = 1", fillcolor="#399de5"] ;
185 -> 223 ;
224 [label="ZIP_CD_60643 <= 0.5\ngini = 0.109\nsamples = 121\nvalue = [114, 7]\nclass = 0", fillcolor="#e78945"] ;
158 -> 224 ;
225 [label="ZIP_CD_60639 <= 0.5\ngini = 0.081\nsamples = 119\nvalue = [114, 5]\nclass = 0", fillcolor="#e68742"] ;
224 -> 225 ;
226 [label="AGE_48.0 <= 0.5\ngini = 0.036\nsamples = 108\nvalue = [106, 2]\nclass = 0", fillcolor="#e5833d"] ;
225 -> 226 ;
227 [label="BUILD_CODE_CD_0 <= 0.5\ngini = 0.019\nsamples = 105\nvalue = [104, 1]\nclass = 0", fillcolor="#e5823b"] ;
226 -> 227 ;
228 [label="gini = 0.0\nsamples = 95\nvalue = [95, 0]\nclass = 0", fillcolor="#e58139"] ;
227 -> 228 ;
229 [label="AGE_20.0 <= 0.5\ngini = 0.18\nsamples = 10\nvalue = [9, 1]\nclass = 0", fillcolor="#e88f4f"] ;
227 -> 229 ;
230 [label="gini = 0.0\nsamples = 9\nvalue = [9, 0]\nclass = 0", fillcolor="#e58139"] ;
229 -> 230 ;
231 [label="gini = 0.0\nsamples = 1\nvalue = [0, 1]\nclass = 1", fillcolor="#399de5"] ;
229 -> 231 ;
232 [label="PROXIMITY_TO_CRIME_I <= 0.5\ngini = 0.444\nsamples = 3\nvalue = [2, 1]\nclass = 0", fillcolor="#f2c09c"] ;
226 -> 232 ;
233 [label="gini = 0.0\nsamples = 1\nvalue = [0, 1]\nclass = 1", fillcolor="#399de5"] ;
232 -> 233 ;
234 [label="gini = 0.0\nsamples = 2\nvalue = [2, 0]\nclass = 0", fillcolor="#e58139"] ;
232 -> 234 ;
235 [label="NAME_VERIFIED_I <= 0.5\ngini = 0.397\nsamples = 11\nvalue = [8, 3]\nclass = 0", fillcolor="#efb083"] ;
225 -> 235 ;
236 [label="RACE_CODE_CD_1 <= 0.5\ngini = 0.5\nsamples = 6\nvalue = [3, 3]\nclass = 0", fillcolor="#ffffff"] ;
235 -> 236 ;
237 [label="BUILD_CODE_CD_4 <= 0.5\ngini = 0.48\nsamples = 5\nvalue = [2, 3]\nclass = 1", fillcolor="#bddef6"] ;
236 -> 237 ;
238 [label="COMPLEXION_CODE_CD_7 <= 0.5\ngini = 0.444\nsamples = 3\nvalue = [2, 1]\nclass = 0", fillcolor="#f2c09c"] ;
237 -> 238 ;
239 [label="gini = 0.0\nsamples = 2\nvalue = [2, 0]\nclass = 0", fillcolor="#e58139"] ;
238 -> 239 ;
240 [label="gini = 0.0\nsamples = 1\nvalue = [0, 1]\nclass = 1", fillcolor="#399de5"] ;
238 -> 240 ;
241 [label="gini = 0.0\nsamples = 2\nvalue = [0, 2]\nclass = 1", fillcolor="#399de5"] ;
237 -> 241 ;
242 [label="gini = 0.0\nsamples = 1\nvalue = [1, 0]\nclass = 0", fillcolor="#e58139"] ;
236 -> 242 ;
243 [label="gini = 0.0\nsamples = 5\nvalue = [5, 0]\nclass = 0", fillcolor="#e58139"] ;
235 -> 243 ;
244 [label="gini = 0.0\nsamples = 2\nvalue = [0, 2]\nclass = 1", fillcolor="#399de5"] ;
224 -> 244 ;
245 [label="SEX_CODE_CD_1 <= 0.5\ngini = 0.444\nsamples = 3\nvalue = [2, 1]\nclass = 0", fillcolor="#f2c09c"] ;
157 -> 245 ;
246 [label="gini = 0.0\nsamples = 1\nvalue = [0, 1]\nclass = 1", fillcolor="#399de5"] ;
245 -> 246 ;
247 [label="gini = 0.0\nsamples = 2\nvalue = [2, 0]\nclass = 0", fillcolor="#e58139"] ;
245 -> 247 ;
248 [label="CONTACT_HOUR_1 <= 0.5\ngini = 0.18\nsamples = 60\nvalue = [54, 6]\nclass = 0", fillcolor="#e88f4f"] ;
156 -> 248 ;
249 [label="AGE_16.0 <= 0.5\ngini = 0.128\nsamples = 58\nvalue = [54, 4]\nclass = 0", fillcolor="#e78a48"] ;
248 -> 249 ;
250 [label="HAIR_STYLE_CODE_CD_25 <= 0.5\ngini = 0.069\nsamples = 56\nvalue = [54, 2]\nclass = 0", fillcolor="#e68640"] ;
249 -> 250 ;
251 [label="BUILD_CODE_CD_2 <= 0.5\ngini = 0.036\nsamples = 55\nvalue = [54, 1]\nclass = 0", fillcolor="#e5833d"] ;
250 -> 251 ;
252 [label="gini = 0.0\nsamples = 47\nvalue = [47, 0]\nclass = 0", fillcolor="#e58139"] ;
251 -> 252 ;
253 [label="CONTACT_HOUR_20 <= 0.5\ngini = 0.219\nsamples = 8\nvalue = [7, 1]\nclass = 0", fillcolor="#e99355"] ;
251 -> 253 ;
254 [label="gini = 0.0\nsamples = 6\nvalue = [6, 0]\nclass = 0", fillcolor="#e58139"] ;
253 -> 254 ;
255 [label="SEX_CODE_CD_1 <= 0.5\ngini = 0.5\nsamples = 2\nvalue = [1, 1]\nclass = 0", fillcolor="#ffffff"] ;
253 -> 255 ;
256 [label="gini = 0.0\nsamples = 1\nvalue = [1, 0]\nclass = 0", fillcolor="#e58139"] ;
255 -> 256 ;
257 [label="gini = 0.0\nsamples = 1\nvalue = [0, 1]\nclass = 1", fillcolor="#399de5"] ;
255 -> 257 ;
258 [label="gini = 0.0\nsamples = 1\nvalue = [0, 1]\nclass = 1", fillcolor="#399de5"] ;
250 -> 258 ;
259 [label="gini = 0.0\nsamples = 2\nvalue = [0, 2]\nclass = 1", fillcolor="#399de5"] ;
249 -> 259 ;
260 [label="gini = 0.0\nsamples = 2\nvalue = [0, 2]\nclass = 1", fillcolor="#399de5"] ;
248 -> 260 ;
261 [label="OTHER_FACTOR_I <= 0.5\ngini = 0.5\nsamples = 2\nvalue = [1, 1]\nclass = 0", fillcolor="#ffffff"] ;
155 -> 261 ;
262 [label="gini = 0.0\nsamples = 1\nvalue = [1, 0]\nclass = 0", fillcolor="#e58139"] ;
261 -> 262 ;
263 [label="gini = 0.0\nsamples = 1\nvalue = [0, 1]\nclass = 1", fillcolor="#399de5"] ;
261 -> 263 ;
264 [label="OTHER_FACTOR_I <= 0.5\ngini = 0.444\nsamples = 6\nvalue = [4, 2]\nclass = 0", fillcolor="#f2c09c"] ;
16 -> 264 ;
265 [label="gini = 0.0\nsamples = 4\nvalue = [4, 0]\nclass = 0", fillcolor="#e58139"] ;
264 -> 265 ;
266 [label="gini = 0.0\nsamples = 2\nvalue = [0, 2]\nclass = 1", fillcolor="#399de5"] ;
264 -> 266 ;
267 [label="ZIP_CD_60613 <= 0.5\ngini = 0.006\nsamples = 47248\nvalue = [47098, 150]\nclass = 0", fillcolor="#e5813a"] ;
15 -> 267 ;
268 [label="ZIP_CD_60620 <= 0.5\ngini = 0.006\nsamples = 46436\nvalue = [46301, 135]\nclass = 0", fillcolor="#e5813a"] ;
267 -> 268 ;
269 [label="ZIP_CD_60640 <= 0.5\ngini = 0.005\nsamples = 42758\nvalue = [42657, 101]\nclass = 0", fillcolor="#e58139"] ;
268 -> 269 ;
270 [label="ZIP_CD_60619 <= 0.5\ngini = 0.004\nsamples = 40064\nvalue = [39986, 78]\nclass = 0", fillcolor="#e58139"] ;
269 -> 270 ;
271 [label="SEARCH_OTHER_CON_SUB_I <= 0.5\ngini = 0.003\nsamples = 37914\nvalue = [37856, 58]\nclass = 0", fillcolor="#e58139"] ;
270 -> 271 ;
272 [label="ZIP_CD_60625 <= 0.5\ngini = 0.003\nsamples = 37897\nvalue = [37840, 57]\nclass = 0", fillcolor="#e58139"] ;
271 -> 272 ;
273 [label="FITS_DESCRIPTION_I <= 0.5\ngini = 0.003\nsamples = 36528\nvalue = [36481, 47]\nclass = 0", fillcolor="#e58139"] ;
272 -> 273 ;
274 [label="VEHICLE_INVOLVED_I <= 0.5\ngini = 0.002\nsamples = 35139\nvalue = [35100, 39]\nclass = 0", fillcolor="#e58139"] ;
273 -> 274 ;
275 [label="ZIP_CD_60609 <= 0.5\ngini = 0.001\nsamples = 21949\nvalue = [21936, 13]\nclass = 0", fillcolor="#e58139"] ;
274 -> 275 ;
276 [label="FITS_DESCRIPTION_OFFENDER_I <= 0.5\ngini = 0.001\nsamples = 21913\nvalue = [21901, 12]\nclass = 0", fillcolor="#e58139"] ;
275 -> 276 ;
277 [label="AGE_29.0 <= 0.5\ngini = 0.001\nsamples = 19644\nvalue = [19638, 6]\nclass = 0", fillcolor="#e58139"] ;
276 -> 277 ;
278 [label="ZIP_CD_60621 <= 0.5\ngini = 0.0\nsamples = 19276\nvalue = [19272, 4]\nclass = 0", fillcolor="#e58139"] ;
277 -> 278 ;
279 [label="AGE_24.0 <= 0.5\ngini = 0.0\nsamples = 17942\nvalue = [17941, 1]\nclass = 0", fillcolor="#e58139"] ;
278 -> 279 ;
280 [label="gini = 0.0\nsamples = 17566\nvalue = [17566, 0]\nclass = 0", fillcolor="#e58139"] ;
279 -> 280 ;
281 [label="CONTACT_HOUR_19 <= 0.5\ngini = 0.005\nsamples = 376\nvalue = [375, 1]\nclass = 0", fillcolor="#e5813a"] ;
279 -> 281 ;
282 [label="gini = 0.0\nsamples = 355\nvalue = [355, 0]\nclass = 0", fillcolor="#e58139"] ;
281 -> 282 ;
283 [label="ZIP_CD_60617 <= 0.5\ngini = 0.091\nsamples = 21\nvalue = [20, 1]\nclass = 0", fillcolor="#e68743"] ;
281 -> 283 ;
284 [label="gini = 0.0\nsamples = 18\nvalue = [18, 0]\nclass = 0", fillcolor="#e58139"] ;
283 -> 284 ;
285 [label="HAIR_STYLE_CODE_CD_3 <= 0.5\ngini = 0.444\nsamples = 3\nvalue = [2, 1]\nclass = 0", fillcolor="#f2c09c"] ;
283 -> 285 ;
286 [label="gini = 0.0\nsamples = 1\nvalue = [0, 1]\nclass = 1", fillcolor="#399de5"] ;
285 -> 286 ;
287 [label="gini = 0.0\nsamples = 2\nvalue = [2, 0]\nclass = 0", fillcolor="#e58139"] ;
285 -> 287 ;
288 [label="INDICATIVE_CASING_I <= 0.5\ngini = 0.004\nsamples = 1334\nvalue = [1331, 3]\nclass = 0", fillcolor="#e58139"] ;
278 -> 288 ;
289 [label="AGE_43.0 <= 0.5\ngini = 0.003\nsamples = 1324\nvalue = [1322, 2]\nclass = 0", fillcolor="#e58139"] ;
288 -> 289 ;
290 [label="AGE_26.0 <= 0.5\ngini = 0.002\nsamples = 1309\nvalue = [1308, 1]\nclass = 0", fillcolor="#e58139"] ;
289 -> 290 ;
291 [label="gini = 0.0\nsamples = 1285\nvalue = [1285, 0]\nclass = 0", fillcolor="#e58139"] ;
290 -> 291 ;
292 [label="COMPLEXION_CODE_CD_8 <= 0.5\ngini = 0.08\nsamples = 24\nvalue = [23, 1]\nclass = 0", fillcolor="#e68642"] ;
290 -> 292 ;
293 [label="gini = 0.0\nsamples = 19\nvalue = [19, 0]\nclass = 0", fillcolor="#e58139"] ;
292 -> 293 ;
294 [label="BUILD_CODE_CD_4 <= 0.5\ngini = 0.32\nsamples = 5\nvalue = [4, 1]\nclass = 0", fillcolor="#eca06a"] ;
292 -> 294 ;
295 [label="CONTACT_HOUR_8 <= 0.5\ngini = 0.5\nsamples = 2\nvalue = [1, 1]\nclass = 0", fillcolor="#ffffff"] ;
294 -> 295 ;
296 [label="gini = 0.0\nsamples = 1\nvalue = [0, 1]\nclass = 1", fillcolor="#399de5"] ;
295 -> 296 ;
297 [label="gini = 0.0\nsamples = 1\nvalue = [1, 0]\nclass = 0", fillcolor="#e58139"] ;
295 -> 297 ;
298 [label="gini = 0.0\nsamples = 3\nvalue = [3, 0]\nclass = 0", fillcolor="#e58139"] ;
294 -> 298 ;
299 [label="CONTACT_HOUR_14 <= 0.5\ngini = 0.124\nsamples = 15\nvalue = [14, 1]\nclass = 0", fillcolor="#e78a47"] ;
289 -> 299 ;
300 [label="gini = 0.0\nsamples = 12\nvalue = [12, 0]\nclass = 0", fillcolor="#e58139"] ;
299 -> 300 ;
301 [label="NAME_VERIFIED_I <= 0.5\ngini = 0.444\nsamples = 3\nvalue = [2, 1]\nclass = 0", fillcolor="#f2c09c"] ;
299 -> 301 ;
302 [label="gini = 0.0\nsamples = 2\nvalue = [2, 0]\nclass = 0", fillcolor="#e58139"] ;
301 -> 302 ;
303 [label="gini = 0.0\nsamples = 1\nvalue = [0, 1]\nclass = 1", fillcolor="#399de5"] ;
301 -> 303 ;
304 [label="CONTACT_HOUR_11 <= 0.5\ngini = 0.18\nsamples = 10\nvalue = [9, 1]\nclass = 0", fillcolor="#e88f4f"] ;
288 -> 304 ;
305 [label="gini = 0.0\nsamples = 9\nvalue = [9, 0]\nclass = 0", fillcolor="#e58139"] ;
304 -> 305 ;
306 [label="gini = 0.0\nsamples = 1\nvalue = [0, 1]\nclass = 1", fillcolor="#399de5"] ;
304 -> 306 ;
307 [label="CONTACT_HOUR_10 <= 0.5\ngini = 0.011\nsamples = 368\nvalue = [366, 2]\nclass = 0", fillcolor="#e5823a"] ;
277 -> 307 ;
308 [label="CONTACT_HOUR_22 <= 0.5\ngini = 0.006\nsamples = 351\nvalue = [350, 1]\nclass = 0", fillcolor="#e5813a"] ;
307 -> 308 ;
309 [label="gini = 0.0\nsamples = 329\nvalue = [329, 0]\nclass = 0", fillcolor="#e58139"] ;
308 -> 309 ;
310 [label="ZIP_CD_60617 <= 0.5\ngini = 0.087\nsamples = 22\nvalue = [21, 1]\nclass = 0", fillcolor="#e68742"] ;
308 -> 310 ;
311 [label="gini = 0.0\nsamples = 21\nvalue = [21, 0]\nclass = 0", fillcolor="#e58139"] ;
310 -> 311 ;
312 [label="gini = 0.0\nsamples = 1\nvalue = [0, 1]\nclass = 1", fillcolor="#399de5"] ;
310 -> 312 ;
313 [label="COMPLEXION_CODE_CD_7 <= 0.5\ngini = 0.111\nsamples = 17\nvalue = [16, 1]\nclass = 0", fillcolor="#e78945"] ;
307 -> 313 ;
314 [label="gini = 0.0\nsamples = 16\nvalue = [16, 0]\nclass = 0", fillcolor="#e58139"] ;
313 -> 314 ;
315 [label="gini = 0.0\nsamples = 1\nvalue = [0, 1]\nclass = 1", fillcolor="#399de5"] ;
313 -> 315 ;
316 [label="AGE_28.0 <= 0.5\ngini = 0.005\nsamples = 2269\nvalue = [2263, 6]\nclass = 0", fillcolor="#e5813a"] ;
276 -> 316 ;
317 [label="AGE_56.0 <= 0.5\ngini = 0.004\nsamples = 2206\nvalue = [2202, 4]\nclass = 0", fillcolor="#e58139"] ;
316 -> 317 ;
318 [label="AGE_41.0 <= 0.5\ngini = 0.003\nsamples = 2187\nvalue = [2184, 3]\nclass = 0", fillcolor="#e58139"] ;
317 -> 318 ;
319 [label="AGE_14.0 <= 0.5\ngini = 0.002\nsamples = 2163\nvalue = [2161, 2]\nclass = 0", fillcolor="#e58139"] ;
318 -> 319 ;
320 [label="AGE_27.0 <= 0.5\ngini = 0.001\nsamples = 2115\nvalue = [2114, 1]\nclass = 0", fillcolor="#e58139"] ;
319 -> 320 ;
321 [label="gini = 0.0\nsamples = 2055\nvalue = [2055, 0]\nclass = 0", fillcolor="#e58139"] ;
320 -> 321 ;
322 [label="ZIP_CD_60639 <= 0.5\ngini = 0.033\nsamples = 60\nvalue = [59, 1]\nclass = 0", fillcolor="#e5833c"] ;
320 -> 322 ;
323 [label="gini = 0.0\nsamples = 57\nvalue = [57, 0]\nclass = 0", fillcolor="#e58139"] ;
322 -> 323 ;
324 [label="CONTACT_HOUR_23 <= 0.5\ngini = 0.444\nsamples = 3\nvalue = [2, 1]\nclass = 0", fillcolor="#f2c09c"] ;
322 -> 324 ;
325 [label="gini = 0.0\nsamples = 2\nvalue = [2, 0]\nclass = 0", fillcolor="#e58139"] ;
324 -> 325 ;
326 [label="gini = 0.0\nsamples = 1\nvalue = [0, 1]\nclass = 1", fillcolor="#399de5"] ;
324 -> 326 ;
327 [label="ZIP_CD_60641 <= 0.5\ngini = 0.041\nsamples = 48\nvalue = [47, 1]\nclass = 0", fillcolor="#e6843d"] ;
319 -> 327 ;
328 [label="gini = 0.0\nsamples = 46\nvalue = [46, 0]\nclass = 0", fillcolor="#e58139"] ;
327 -> 328 ;
329 [label="PROXIMITY_TO_CRIME_I <= 0.5\ngini = 0.5\nsamples = 2\nvalue = [1, 1]\nclass = 0", fillcolor="#ffffff"] ;
327 -> 329 ;
330 [label="gini = 0.0\nsamples = 1\nvalue = [1, 0]\nclass = 0", fillcolor="#e58139"] ;
329 -> 330 ;
331 [label="gini = 0.0\nsamples = 1\nvalue = [0, 1]\nclass = 1", fillcolor="#399de5"] ;
329 -> 331 ;
332 [label="CONTACT_HOUR_11 <= 0.5\ngini = 0.08\nsamples = 24\nvalue = [23, 1]\nclass = 0", fillcolor="#e68642"] ;
318 -> 332 ;
333 [label="gini = 0.0\nsamples = 23\nvalue = [23, 0]\nclass = 0", fillcolor="#e58139"] ;
332 -> 333 ;
334 [label="gini = 0.0\nsamples = 1\nvalue = [0, 1]\nclass = 1", fillcolor="#399de5"] ;
332 -> 334 ;
335 [label="HAIR_STYLE_CODE_CD_2 <= 0.5\ngini = 0.1\nsamples = 19\nvalue = [18, 1]\nclass = 0", fillcolor="#e68844"] ;
317 -> 335 ;
336 [label="gini = 0.0\nsamples = 18\nvalue = [18, 0]\nclass = 0", fillcolor="#e58139"] ;
335 -> 336 ;
337 [label="gini = 0.0\nsamples = 1\nvalue = [0, 1]\nclass = 1", fillcolor="#399de5"] ;
335 -> 337 ;
338 [label="CONTACT_HOUR_21 <= 0.5\ngini = 0.061\nsamples = 63\nvalue = [61, 2]\nclass = 0", fillcolor="#e6853f"] ;
316 -> 338 ;
339 [label="gini = 0.0\nsamples = 60\nvalue = [60, 0]\nclass = 0", fillcolor="#e58139"] ;
338 -> 339 ;
340 [label="RACE_CODE_CD_1 <= 0.5\ngini = 0.444\nsamples = 3\nvalue = [1, 2]\nclass = 1", fillcolor="#9ccef2"] ;
338 -> 340 ;
341 [label="gini = 0.0\nsamples = 2\nvalue = [0, 2]\nclass = 1", fillcolor="#399de5"] ;
340 -> 341 ;
342 [label="gini = 0.0\nsamples = 1\nvalue = [1, 0]\nclass = 0", fillcolor="#e58139"] ;
340 -> 342 ;
343 [label="CONTACT_HOUR_21 <= 0.5\ngini = 0.054\nsamples = 36\nvalue = [35, 1]\nclass = 0", fillcolor="#e6853f"] ;
275 -> 343 ;
344 [label="gini = 0.0\nsamples = 35\nvalue = [35, 0]\nclass = 0", fillcolor="#e58139"] ;
343 -> 344 ;
345 [label="gini = 0.0\nsamples = 1\nvalue = [0, 1]\nclass = 1", fillcolor="#399de5"] ;
343 -> 345 ;
346 [label="AGE_13.0 <= 0.5\ngini = 0.004\nsamples = 13190\nvalue = [13164, 26]\nclass = 0", fillcolor="#e58139"] ;
274 -> 346 ;
347 [label="ZIP_CD_60641 <= 0.5\ngini = 0.004\nsamples = 13180\nvalue = [13155, 25]\nclass = 0", fillcolor="#e58139"] ;
346 -> 347 ;
348 [label="ZIP_CD_60636 <= 0.5\ngini = 0.003\nsamples = 12941\nvalue = [12920, 21]\nclass = 0", fillcolor="#e58139"] ;
347 -> 348 ;
349 [label="ZIP_CD_60639 <= 0.5\ngini = 0.002\nsamples = 11896\nvalue = [11883, 13]\nclass = 0", fillcolor="#e58139"] ;
348 -> 349 ;
350 [label="ZIP_CD_60621 <= 0.5\ngini = 0.001\nsamples = 11231\nvalue = [11223, 8]\nclass = 0", fillcolor="#e58139"] ;
349 -> 350 ;
351 [label="ZIP_CD_60707 <= 0.5\ngini = 0.001\nsamples = 10159\nvalue = [10156, 3]\nclass = 0", fillcolor="#e58139"] ;
350 -> 351 ;
352 [label="AGE_24.0 <= 0.5\ngini = 0.0\nsamples = 10104\nvalue = [10102, 2]\nclass = 0", fillcolor="#e58139"] ;
351 -> 352 ;
353 [label="gini = 0.0\nsamples = 9595\nvalue = [9595, 0]\nclass = 0", fillcolor="#e58139"] ;
352 -> 353 ;
354 [label="CONTACT_HOUR_3 <= 0.5\ngini = 0.008\nsamples = 509\nvalue = [507, 2]\nclass = 0", fillcolor="#e5813a"] ;
352 -> 354 ;
355 [label="COMPLEXION_CODE_CD_2 <= 0.5\ngini = 0.004\nsamples = 493\nvalue = [492, 1]\nclass = 0", fillcolor="#e58139"] ;
354 -> 355 ;
356 [label="gini = 0.0\nsamples = 449\nvalue = [449, 0]\nclass = 0", fillcolor="#e58139"] ;
355 -> 356 ;
357 [label="PAT_DOWN_RECEIPT_GIVEN_I <= 0.5\ngini = 0.044\nsamples = 44\nvalue = [43, 1]\nclass = 0", fillcolor="#e6843e"] ;
355 -> 357 ;
358 [label="gini = 0.0\nsamples = 39\nvalue = [39, 0]\nclass = 0", fillcolor="#e58139"] ;
357 -> 358 ;
359 [label="CAR_CAMERA_I <= 0.5\ngini = 0.32\nsamples = 5\nvalue = [4, 1]\nclass = 0", fillcolor="#eca06a"] ;
357 -> 359 ;
360 [label="gini = 0.0\nsamples = 1\nvalue = [0, 1]\nclass = 1", fillcolor="#399de5"] ;
359 -> 360 ;
361 [label="gini = 0.0\nsamples = 4\nvalue = [4, 0]\nclass = 0", fillcolor="#e58139"] ;
359 -> 361 ;
362 [label="ZIP_CD_60630 <= 0.5\ngini = 0.117\nsamples = 16\nvalue = [15, 1]\nclass = 0", fillcolor="#e78946"] ;
354 -> 362 ;
363 [label="gini = 0.0\nsamples = 15\nvalue = [15, 0]\nclass = 0", fillcolor="#e58139"] ;
362 -> 363 ;
364 [label="gini = 0.0\nsamples = 1\nvalue = [0, 1]\nclass = 1", fillcolor="#399de5"] ;
362 -> 364 ;
365 [label="HAIR_STYLE_CODE_CD_25 <= 0.5\ngini = 0.036\nsamples = 55\nvalue = [54, 1]\nclass = 0", fillcolor="#e5833d"] ;
351 -> 365 ;
366 [label="gini = 0.0\nsamples = 53\nvalue = [53, 0]\nclass = 0", fillcolor="#e58139"] ;
365 -> 366 ;
367 [label="CONTACT_HOUR_18 <= 0.5\ngini = 0.5\nsamples = 2\nvalue = [1, 1]\nclass = 0", fillcolor="#ffffff"] ;
365 -> 367 ;
368 [label="gini = 0.0\nsamples = 1\nvalue = [1, 0]\nclass = 0", fillcolor="#e58139"] ;
367 -> 368 ;
369 [label="gini = 0.0\nsamples = 1\nvalue = [0, 1]\nclass = 1", fillcolor="#399de5"] ;
367 -> 369 ;
370 [label="CAR_CAMERA_I <= 0.5\ngini = 0.009\nsamples = 1072\nvalue = [1067, 5]\nclass = 0", fillcolor="#e5823a"] ;
350 -> 370 ;
371 [label="CONTACT_HOUR_20 <= 0.5\ngini = 0.031\nsamples = 321\nvalue = [316, 5]\nclass = 0", fillcolor="#e5833c"] ;
370 -> 371 ;
372 [label="AGE_38.0 <= 0.5\ngini = 0.02\nsamples = 299\nvalue = [296, 3]\nclass = 0", fillcolor="#e5823b"] ;
371 -> 372 ;
373 [label="AGE_39.0 <= 0.5\ngini = 0.014\nsamples = 292\nvalue = [290, 2]\nclass = 0", fillcolor="#e5823a"] ;
372 -> 373 ;
374 [label="AGE_29.0 <= 0.5\ngini = 0.007\nsamples = 285\nvalue = [284, 1]\nclass = 0", fillcolor="#e5813a"] ;
373 -> 374 ;
375 [label="gini = 0.0\nsamples = 274\nvalue = [274, 0]\nclass = 0", fillcolor="#e58139"] ;
374 -> 375 ;
376 [label="CONTACT_HOUR_15 <= 0.5\ngini = 0.165\nsamples = 11\nvalue = [10, 1]\nclass = 0", fillcolor="#e88e4d"] ;
374 -> 376 ;
377 [label="gini = 0.0\nsamples = 10\nvalue = [10, 0]\nclass = 0", fillcolor="#e58139"] ;
376 -> 377 ;
378 [label="gini = 0.0\nsamples = 1\nvalue = [0, 1]\nclass = 1", fillcolor="#399de5"] ;
376 -> 378 ;
379 [label="CONTACT_HOUR_23 <= 0.5\ngini = 0.245\nsamples = 7\nvalue = [6, 1]\nclass = 0", fillcolor="#e9965a"] ;
373 -> 379 ;
380 [label="gini = 0.0\nsamples = 6\nvalue = [6, 0]\nclass = 0", fillcolor="#e58139"] ;
379 -> 380 ;
381 [label="gini = 0.0\nsamples = 1\nvalue = [0, 1]\nclass = 1", fillcolor="#399de5"] ;
379 -> 381 ;
382 [label="HAIR_STYLE_CODE_CD_13 <= 0.5\ngini = 0.245\nsamples = 7\nvalue = [6, 1]\nclass = 0", fillcolor="#e9965a"] ;
372 -> 382 ;
383 [label="gini = 0.0\nsamples = 6\nvalue = [6, 0]\nclass = 0", fillcolor="#e58139"] ;
382 -> 383 ;
384 [label="gini = 0.0\nsamples = 1\nvalue = [0, 1]\nclass = 1", fillcolor="#399de5"] ;
382 -> 384 ;
385 [label="AGE_34.0 <= 0.5\ngini = 0.165\nsamples = 22\nvalue = [20, 2]\nclass = 0", fillcolor="#e88e4d"] ;
371 -> 385 ;
386 [label="AGE_20.0 <= 0.5\ngini = 0.091\nsamples = 21\nvalue = [20, 1]\nclass = 0", fillcolor="#e68743"] ;
385 -> 386 ;
387 [label="gini = 0.0\nsamples = 19\nvalue = [19, 0]\nclass = 0", fillcolor="#e58139"] ;
386 -> 387 ;
388 [label="PAT_DOWN_RECEIPT_GIVEN_I <= 0.5\ngini = 0.5\nsamples = 2\nvalue = [1, 1]\nclass = 0", fillcolor="#ffffff"] ;
386 -> 388 ;
389 [label="gini = 0.0\nsamples = 1\nvalue = [0, 1]\nclass = 1", fillcolor="#399de5"] ;
388 -> 389 ;
390 [label="gini = 0.0\nsamples = 1\nvalue = [1, 0]\nclass = 0", fillcolor="#e58139"] ;
388 -> 390 ;
391 [label="gini = 0.0\nsamples = 1\nvalue = [0, 1]\nclass = 1", fillcolor="#399de5"] ;
385 -> 391 ;
392 [label="gini = 0.0\nsamples = 751\nvalue = [751, 0]\nclass = 0", fillcolor="#e58139"] ;
370 -> 392 ;
393 [label="RACE_CODE_CD_0 <= 0.5\ngini = 0.015\nsamples = 665\nvalue = [660, 5]\nclass = 0", fillcolor="#e5823b"] ;
349 -> 393 ;
394 [label="HAIR_STYLE_CODE_CD_3 <= 0.5\ngini = 0.012\nsamples = 661\nvalue = [657, 4]\nclass = 0", fillcolor="#e5823a"] ;
393 -> 394 ;
395 [label="CONTACT_HOUR_20 <= 0.5\ngini = 0.009\nsamples = 651\nvalue = [648, 3]\nclass = 0", fillcolor="#e5823a"] ;
394 -> 395 ;
396 [label="SEARCH_CANNABIS_I <= 0.5\ngini = 0.003\nsamples = 587\nvalue = [586, 1]\nclass = 0", fillcolor="#e58139"] ;
395 -> 396 ;
397 [label="gini = 0.0\nsamples = 565\nvalue = [565, 0]\nclass = 0", fillcolor="#e58139"] ;
396 -> 397 ;
398 [label="HAIR_STYLE_CODE_CD_11 <= 0.5\ngini = 0.087\nsamples = 22\nvalue = [21, 1]\nclass = 0", fillcolor="#e68742"] ;
396 -> 398 ;
399 [label="gini = 0.0\nsamples = 21\nvalue = [21, 0]\nclass = 0", fillcolor="#e58139"] ;
398 -> 399 ;
400 [label="gini = 0.0\nsamples = 1\nvalue = [0, 1]\nclass = 1", fillcolor="#399de5"] ;
398 -> 400 ;
401 [label="FITS_DESCRIPTION_OFFENDER_I <= 0.5\ngini = 0.061\nsamples = 64\nvalue = [62, 2]\nclass = 0", fillcolor="#e6853f"] ;
395 -> 401 ;
402 [label="AGE_31.0 <= 0.5\ngini = 0.032\nsamples = 62\nvalue = [61, 1]\nclass = 0", fillcolor="#e5833c"] ;
401 -> 402 ;
403 [label="gini = 0.0\nsamples = 59\nvalue = [59, 0]\nclass = 0", fillcolor="#e58139"] ;
402 -> 403 ;
404 [label="HAIR_STYLE_CODE_CD_22 <= 0.5\ngini = 0.444\nsamples = 3\nvalue = [2, 1]\nclass = 0", fillcolor="#f2c09c"] ;
402 -> 404 ;
405 [label="gini = 0.0\nsamples = 1\nvalue = [0, 1]\nclass = 1", fillcolor="#399de5"] ;
404 -> 405 ;
406 [label="gini = 0.0\nsamples = 2\nvalue = [2, 0]\nclass = 0", fillcolor="#e58139"] ;
404 -> 406 ;
407 [label="PROXIMITY_TO_CRIME_I <= 0.5\ngini = 0.5\nsamples = 2\nvalue = [1, 1]\nclass = 0", fillcolor="#ffffff"] ;
401 -> 407 ;
408 [label="gini = 0.0\nsamples = 1\nvalue = [0, 1]\nclass = 1", fillcolor="#399de5"] ;
407 -> 408 ;
409 [label="gini = 0.0\nsamples = 1\nvalue = [1, 0]\nclass = 0", fillcolor="#e58139"] ;
407 -> 409 ;
410 [label="CONTACT_HOUR_2 <= 0.5\ngini = 0.18\nsamples = 10\nvalue = [9, 1]\nclass = 0", fillcolor="#e88f4f"] ;
394 -> 410 ;
411 [label="gini = 0.0\nsamples = 9\nvalue = [9, 0]\nclass = 0", fillcolor="#e58139"] ;
410 -> 411 ;
412 [label="gini = 0.0\nsamples = 1\nvalue = [0, 1]\nclass = 1", fillcolor="#399de5"] ;
410 -> 412 ;
413 [label="OTHER_FACTOR_I <= 0.5\ngini = 0.375\nsamples = 4\nvalue = [3, 1]\nclass = 0", fillcolor="#eeab7b"] ;
393 -> 413 ;
414 [label="gini = 0.0\nsamples = 3\nvalue = [3, 0]\nclass = 0", fillcolor="#e58139"] ;
413 -> 414 ;
415 [label="gini = 0.0\nsamples = 1\nvalue = [0, 1]\nclass = 1", fillcolor="#399de5"] ;
413 -> 415 ;
416 [label="HAIR_STYLE_CODE_CD_10 <= 0.5\ngini = 0.015\nsamples = 1045\nvalue = [1037, 8]\nclass = 0", fillcolor="#e5823b"] ;
348 -> 416 ;
417 [label="AGE_15.0 <= 0.5\ngini = 0.012\nsamples = 1033\nvalue = [1027, 6]\nclass = 0", fillcolor="#e5823a"] ;
416 -> 417 ;
418 [label="HAIR_STYLE_CODE_CD_3 <= 0.5\ngini = 0.01\nsamples = 1027\nvalue = [1022, 5]\nclass = 0", fillcolor="#e5823a"] ;
417 -> 418 ;
419 [label="AGE_17.0 <= 0.5\ngini = 0.006\nsamples = 989\nvalue = [986, 3]\nclass = 0", fillcolor="#e5813a"] ;
418 -> 419 ;
420 [label="AGE_35.0 <= 0.5\ngini = 0.004\nsamples = 975\nvalue = [973, 2]\nclass = 0", fillcolor="#e58139"] ;
419 -> 420 ;
421 [label="CONTACT_HOUR_11 <= 0.5\ngini = 0.002\nsamples = 954\nvalue = [953, 1]\nclass = 0", fillcolor="#e58139"] ;
420 -> 421 ;
422 [label="gini = 0.0\nsamples = 930\nvalue = [930, 0]\nclass = 0", fillcolor="#e58139"] ;
421 -> 422 ;
423 [label="AGE_23.0 <= 0.5\ngini = 0.08\nsamples = 24\nvalue = [23, 1]\nclass = 0", fillcolor="#e68642"] ;
421 -> 423 ;
424 [label="gini = 0.0\nsamples = 22\nvalue = [22, 0]\nclass = 0", fillcolor="#e58139"] ;
423 -> 424 ;
425 [label="NAME_VERIFIED_I <= 0.5\ngini = 0.5\nsamples = 2\nvalue = [1, 1]\nclass = 0", fillcolor="#ffffff"] ;
423 -> 425 ;
426 [label="gini = 0.0\nsamples = 1\nvalue = [0, 1]\nclass = 1", fillcolor="#399de5"] ;
425 -> 426 ;
427 [label="gini = 0.0\nsamples = 1\nvalue = [1, 0]\nclass = 0", fillcolor="#e58139"] ;
425 -> 427 ;
428 [label="CONTACT_HOUR_22 <= 0.5\ngini = 0.091\nsamples = 21\nvalue = [20, 1]\nclass = 0", fillcolor="#e68743"] ;
420 -> 428 ;
429 [label="gini = 0.0\nsamples = 19\nvalue = [19, 0]\nclass = 0", fillcolor="#e58139"] ;
428 -> 429 ;
430 [label="HAIR_STYLE_CODE_CD_14 <= 0.5\ngini = 0.5\nsamples = 2\nvalue = [1, 1]\nclass = 0", fillcolor="#ffffff"] ;
428 -> 430 ;
431 [label="gini = 0.0\nsamples = 1\nvalue = [1, 0]\nclass = 0", fillcolor="#e58139"] ;
430 -> 431 ;
432 [label="gini = 0.0\nsamples = 1\nvalue = [0, 1]\nclass = 1", fillcolor="#399de5"] ;
430 -> 432 ;
433 [label="CONTACT_HOUR_12 <= 0.5\ngini = 0.133\nsamples = 14\nvalue = [13, 1]\nclass = 0", fillcolor="#e78b48"] ;
419 -> 433 ;
434 [label="gini = 0.0\nsamples = 13\nvalue = [13, 0]\nclass = 0", fillcolor="#e58139"] ;
433 -> 434 ;
435 [label="gini = 0.0\nsamples = 1\nvalue = [0, 1]\nclass = 1", fillcolor="#399de5"] ;
433 -> 435 ;
436 [label="HAIR_COLOR_CODE_CD_6 <= 0.5\ngini = 0.1\nsamples = 38\nvalue = [36, 2]\nclass = 0", fillcolor="#e68844"] ;
418 -> 436 ;
437 [label="AGE_36.0 <= 0.5\ngini = 0.053\nsamples = 37\nvalue = [36, 1]\nclass = 0", fillcolor="#e6843e"] ;
436 -> 437 ;
438 [label="gini = 0.0\nsamples = 35\nvalue = [35, 0]\nclass = 0", fillcolor="#e58139"] ;
437 -> 438 ;
439 [label="SEX_CODE_CD_1 <= 0.5\ngini = 0.5\nsamples = 2\nvalue = [1, 1]\nclass = 0", fillcolor="#ffffff"] ;
437 -> 439 ;
440 [label="gini = 0.0\nsamples = 1\nvalue = [0, 1]\nclass = 1", fillcolor="#399de5"] ;
439 -> 440 ;
441 [label="gini = 0.0\nsamples = 1\nvalue = [1, 0]\nclass = 0", fillcolor="#e58139"] ;
439 -> 441 ;
442 [label="gini = 0.0\nsamples = 1\nvalue = [0, 1]\nclass = 1", fillcolor="#399de5"] ;
436 -> 442 ;
443 [label="CONTACT_HOUR_12 <= 0.5\ngini = 0.278\nsamples = 6\nvalue = [5, 1]\nclass = 0", fillcolor="#ea9a61"] ;
417 -> 443 ;
444 [label="gini = 0.0\nsamples = 5\nvalue = [5, 0]\nclass = 0", fillcolor="#e58139"] ;
443 -> 444 ;
445 [label="gini = 0.0\nsamples = 1\nvalue = [0, 1]\nclass = 1", fillcolor="#399de5"] ;
443 -> 445 ;
446 [label="AGE_47.0 <= 0.5\ngini = 0.278\nsamples = 12\nvalue = [10, 2]\nclass = 0", fillcolor="#ea9a61"] ;
416 -> 446 ;
447 [label="CONTACT_HOUR_11 <= 0.5\ngini = 0.165\nsamples = 11\nvalue = [10, 1]\nclass = 0", fillcolor="#e88e4d"] ;
446 -> 447 ;
448 [label="gini = 0.0\nsamples = 10\nvalue = [10, 0]\nclass = 0", fillcolor="#e58139"] ;
447 -> 448 ;
449 [label="gini = 0.0\nsamples = 1\nvalue = [0, 1]\nclass = 1", fillcolor="#399de5"] ;
447 -> 449 ;
450 [label="gini = 0.0\nsamples = 1\nvalue = [0, 1]\nclass = 1", fillcolor="#399de5"] ;
446 -> 450 ;
451 [label="AGE_31.0 <= 0.5\ngini = 0.033\nsamples = 239\nvalue = [235, 4]\nclass = 0", fillcolor="#e5833c"] ;
347 -> 451 ;
452 [label="CONTACT_HOUR_19 <= 0.5\ngini = 0.025\nsamples = 236\nvalue = [233, 3]\nclass = 0", fillcolor="#e5833c"] ;
451 -> 452 ;
453 [label="CONTACT_HOUR_17 <= 0.5\ngini = 0.009\nsamples = 225\nvalue = [224, 1]\nclass = 0", fillcolor="#e5823a"] ;
452 -> 453 ;
454 [label="gini = 0.0\nsamples = 220\nvalue = [220, 0]\nclass = 0", fillcolor="#e58139"] ;
453 -> 454 ;
455 [label="EYE_COLOR_CODE_CD_6 <= 0.5\ngini = 0.32\nsamples = 5\nvalue = [4, 1]\nclass = 0", fillcolor="#eca06a"] ;
453 -> 455 ;
456 [label="gini = 0.0\nsamples = 4\nvalue = [4, 0]\nclass = 0", fillcolor="#e58139"] ;
455 -> 456 ;
457 [label="gini = 0.0\nsamples = 1\nvalue = [0, 1]\nclass = 1", fillcolor="#399de5"] ;
455 -> 457 ;
458 [label="BUILD_CODE_CD_3 <= 0.5\ngini = 0.298\nsamples = 11\nvalue = [9, 2]\nclass = 0", fillcolor="#eb9d65"] ;
452 -> 458 ;
459 [label="AGE_23.0 <= 0.5\ngini = 0.18\nsamples = 10\nvalue = [9, 1]\nclass = 0", fillcolor="#e88f4f"] ;
458 -> 459 ;
460 [label="gini = 0.0\nsamples = 9\nvalue = [9, 0]\nclass = 0", fillcolor="#e58139"] ;
459 -> 460 ;
461 [label="gini = 0.0\nsamples = 1\nvalue = [0, 1]\nclass = 1", fillcolor="#399de5"] ;
459 -> 461 ;
462 [label="gini = 0.0\nsamples = 1\nvalue = [0, 1]\nclass = 1", fillcolor="#399de5"] ;
458 -> 462 ;
463 [label="HAIR_COLOR_CODE_CD_4 <= 0.5\ngini = 0.444\nsamples = 3\nvalue = [2, 1]\nclass = 0", fillcolor="#f2c09c"] ;
451 -> 463 ;
464 [label="gini = 0.0\nsamples = 2\nvalue = [2, 0]\nclass = 0", fillcolor="#e58139"] ;
463 -> 464 ;
465 [label="gini = 0.0\nsamples = 1\nvalue = [0, 1]\nclass = 1", fillcolor="#399de5"] ;
463 -> 465 ;
466 [label="CONTACT_HOUR_12 <= 0.5\ngini = 0.18\nsamples = 10\nvalue = [9, 1]\nclass = 0", fillcolor="#e88f4f"] ;
346 -> 466 ;
467 [label="gini = 0.0\nsamples = 9\nvalue = [9, 0]\nclass = 0", fillcolor="#e58139"] ;
466 -> 467 ;
468 [label="gini = 0.0\nsamples = 1\nvalue = [0, 1]\nclass = 1", fillcolor="#399de5"] ;
466 -> 468 ;
469 [label="ZIP_CD_60634 <= 0.5\ngini = 0.011\nsamples = 1389\nvalue = [1381, 8]\nclass = 0", fillcolor="#e5823a"] ;
273 -> 469 ;
470 [label="AGE_54.0 <= 0.5\ngini = 0.007\nsamples = 1338\nvalue = [1333, 5]\nclass = 0", fillcolor="#e5813a"] ;
469 -> 470 ;
471 [label="AGE_44.0 <= 0.5\ngini = 0.006\nsamples = 1322\nvalue = [1318, 4]\nclass = 0", fillcolor="#e5813a"] ;
470 -> 471 ;
472 [label="CONTACT_HOUR_18 <= 0.5\ngini = 0.005\nsamples = 1304\nvalue = [1301, 3]\nclass = 0", fillcolor="#e58139"] ;
471 -> 472 ;
473 [label="AGE_36.0 <= 0.5\ngini = 0.002\nsamples = 1232\nvalue = [1231, 1]\nclass = 0", fillcolor="#e58139"] ;
472 -> 473 ;
474 [label="gini = 0.0\nsamples = 1204\nvalue = [1204, 0]\nclass = 0", fillcolor="#e58139"] ;
473 -> 474 ;
475 [label="CONTACT_HOUR_22 <= 0.5\ngini = 0.069\nsamples = 28\nvalue = [27, 1]\nclass = 0", fillcolor="#e68640"] ;
473 -> 475 ;
476 [label="gini = 0.0\nsamples = 26\nvalue = [26, 0]\nclass = 0", fillcolor="#e58139"] ;
475 -> 476 ;
477 [label="VEHICLE_INVOLVED_I <= 0.5\ngini = 0.5\nsamples = 2\nvalue = [1, 1]\nclass = 0", fillcolor="#ffffff"] ;
475 -> 477 ;
478 [label="gini = 0.0\nsamples = 1\nvalue = [1, 0]\nclass = 0", fillcolor="#e58139"] ;
477 -> 478 ;
479 [label="gini = 0.0\nsamples = 1\nvalue = [0, 1]\nclass = 1", fillcolor="#399de5"] ;
477 -> 479 ;
480 [label="AGE_25.0 <= 0.5\ngini = 0.054\nsamples = 72\nvalue = [70, 2]\nclass = 0", fillcolor="#e6853f"] ;
472 -> 480 ;
481 [label="AGE_22.0 <= 0.5\ngini = 0.028\nsamples = 71\nvalue = [70, 1]\nclass = 0", fillcolor="#e5833c"] ;
480 -> 481 ;
482 [label="gini = 0.0\nsamples = 67\nvalue = [67, 0]\nclass = 0", fillcolor="#e58139"] ;
481 -> 482 ;
483 [label="EVENT_ASSIGNEED_BY_CD <= 2.0\ngini = 0.375\nsamples = 4\nvalue = [3, 1]\nclass = 0", fillcolor="#eeab7b"] ;
481 -> 483 ;
484 [label="gini = 0.0\nsamples = 3\nvalue = [3, 0]\nclass = 0", fillcolor="#e58139"] ;
483 -> 484 ;
485 [label="gini = 0.0\nsamples = 1\nvalue = [0, 1]\nclass = 1", fillcolor="#399de5"] ;
483 -> 485 ;
486 [label="gini = 0.0\nsamples = 1\nvalue = [0, 1]\nclass = 1", fillcolor="#399de5"] ;
480 -> 486 ;
487 [label="CONTACT_HOUR_11 <= 0.5\ngini = 0.105\nsamples = 18\nvalue = [17, 1]\nclass = 0", fillcolor="#e78845"] ;
471 -> 487 ;
488 [label="gini = 0.0\nsamples = 17\nvalue = [17, 0]\nclass = 0", fillcolor="#e58139"] ;
487 -> 488 ;
489 [label="gini = 0.0\nsamples = 1\nvalue = [0, 1]\nclass = 1", fillcolor="#399de5"] ;
487 -> 489 ;
490 [label="HAIR_STYLE_CODE_CD_17 <= 0.5\ngini = 0.117\nsamples = 16\nvalue = [15, 1]\nclass = 0", fillcolor="#e78946"] ;
470 -> 490 ;
491 [label="gini = 0.0\nsamples = 15\nvalue = [15, 0]\nclass = 0", fillcolor="#e58139"] ;
490 -> 491 ;
492 [label="gini = 0.0\nsamples = 1\nvalue = [0, 1]\nclass = 1", fillcolor="#399de5"] ;
490 -> 492 ;
493 [label="PAT_DOWN_RECEIPT_GIVEN_I <= 0.5\ngini = 0.111\nsamples = 51\nvalue = [48, 3]\nclass = 0", fillcolor="#e78945"] ;
469 -> 493 ;
494 [label="gini = 0.0\nsamples = 46\nvalue = [46, 0]\nclass = 0", fillcolor="#e58139"] ;
493 -> 494 ;
495 [label="PROXIMITY_TO_CRIME_I <= 0.5\ngini = 0.48\nsamples = 5\nvalue = [2, 3]\nclass = 1", fillcolor="#bddef6"] ;
493 -> 495 ;
496 [label="gini = 0.0\nsamples = 3\nvalue = [0, 3]\nclass = 1", fillcolor="#399de5"] ;
495 -> 496 ;
497 [label="gini = 0.0\nsamples = 2\nvalue = [2, 0]\nclass = 0", fillcolor="#e58139"] ;
495 -> 497 ;
498 [label="CAR_CAMERA_I <= 0.5\ngini = 0.015\nsamples = 1369\nvalue = [1359, 10]\nclass = 0", fillcolor="#e5823a"] ;
272 -> 498 ;
499 [label="AGE_11.0 <= 0.5\ngini = 0.008\nsamples = 1263\nvalue = [1258, 5]\nclass = 0", fillcolor="#e5823a"] ;
498 -> 499 ;
500 [label="HAIR_STYLE_CODE_CD_3 <= 0.5\ngini = 0.006\nsamples = 1259\nvalue = [1255, 4]\nclass = 0", fillcolor="#e5813a"] ;
499 -> 500 ;
501 [label="CONTACT_HOUR_21 <= 0.5\ngini = 0.005\nsamples = 1252\nvalue = [1249, 3]\nclass = 0", fillcolor="#e58139"] ;
500 -> 501 ;
502 [label="AGE_21.0 <= 0.5\ngini = 0.002\nsamples = 1177\nvalue = [1176, 1]\nclass = 0", fillcolor="#e58139"] ;
501 -> 502 ;
503 [label="gini = 0.0\nsamples = 1128\nvalue = [1128, 0]\nclass = 0", fillcolor="#e58139"] ;
502 -> 503 ;
504 [label="CONTACT_HOUR_19 <= 0.5\ngini = 0.04\nsamples = 49\nvalue = [48, 1]\nclass = 0", fillcolor="#e6843d"] ;
502 -> 504 ;
505 [label="gini = 0.0\nsamples = 47\nvalue = [47, 0]\nclass = 0", fillcolor="#e58139"] ;
504 -> 505 ;
506 [label="HAIR_STYLE_CODE_CD_22 <= 0.5\ngini = 0.5\nsamples = 2\nvalue = [1, 1]\nclass = 0", fillcolor="#ffffff"] ;
504 -> 506 ;
507 [label="gini = 0.0\nsamples = 1\nvalue = [0, 1]\nclass = 1", fillcolor="#399de5"] ;
506 -> 507 ;
508 [label="gini = 0.0\nsamples = 1\nvalue = [1, 0]\nclass = 0", fillcolor="#e58139"] ;
506 -> 508 ;
509 [label="AGE_17.0 <= 0.5\ngini = 0.052\nsamples = 75\nvalue = [73, 2]\nclass = 0", fillcolor="#e6843e"] ;
501 -> 509 ;
510 [label="HAIR_STYLE_CODE_CD_15 <= 0.5\ngini = 0.027\nsamples = 73\nvalue = [72, 1]\nclass = 0", fillcolor="#e5833c"] ;
509 -> 510 ;
511 [label="gini = 0.0\nsamples = 69\nvalue = [69, 0]\nclass = 0", fillcolor="#e58139"] ;
510 -> 511 ;
512 [label="PAT_DOWN_RECEIPT_GIVEN_I <= 0.5\ngini = 0.375\nsamples = 4\nvalue = [3, 1]\nclass = 0", fillcolor="#eeab7b"] ;
510 -> 512 ;
513 [label="gini = 0.0\nsamples = 3\nvalue = [3, 0]\nclass = 0", fillcolor="#e58139"] ;
512 -> 513 ;
514 [label="gini = 0.0\nsamples = 1\nvalue = [0, 1]\nclass = 1", fillcolor="#399de5"] ;
512 -> 514 ;
515 [label="RACE_CODE_CD_8 <= 0.5\ngini = 0.5\nsamples = 2\nvalue = [1, 1]\nclass = 0", fillcolor="#ffffff"] ;
509 -> 515 ;
516 [label="gini = 0.0\nsamples = 1\nvalue = [0, 1]\nclass = 1", fillcolor="#399de5"] ;
515 -> 516 ;
517 [label="gini = 0.0\nsamples = 1\nvalue = [1, 0]\nclass = 0", fillcolor="#e58139"] ;
515 -> 517 ;
518 [label="CONTACT_HOUR_21 <= 0.5\ngini = 0.245\nsamples = 7\nvalue = [6, 1]\nclass = 0", fillcolor="#e9965a"] ;
500 -> 518 ;
519 [label="gini = 0.0\nsamples = 6\nvalue = [6, 0]\nclass = 0", fillcolor="#e58139"] ;
518 -> 519 ;
520 [label="gini = 0.0\nsamples = 1\nvalue = [0, 1]\nclass = 1", fillcolor="#399de5"] ;
518 -> 520 ;
521 [label="CONTACT_HOUR_0 <= 0.5\ngini = 0.375\nsamples = 4\nvalue = [3, 1]\nclass = 0", fillcolor="#eeab7b"] ;
499 -> 521 ;
522 [label="gini = 0.0\nsamples = 3\nvalue = [3, 0]\nclass = 0", fillcolor="#e58139"] ;
521 -> 522 ;
523 [label="gini = 0.0\nsamples = 1\nvalue = [0, 1]\nclass = 1", fillcolor="#399de5"] ;
521 -> 523 ;
524 [label="CONTACT_HOUR_1 <= 0.5\ngini = 0.09\nsamples = 106\nvalue = [101, 5]\nclass = 0", fillcolor="#e68743"] ;
498 -> 524 ;
525 [label="AGE_41.0 <= 0.5\ngini = 0.039\nsamples = 100\nvalue = [98, 2]\nclass = 0", fillcolor="#e6843d"] ;
524 -> 525 ;
526 [label="HAIR_STYLE_CODE_CD_17 <= 0.5\ngini = 0.02\nsamples = 99\nvalue = [98, 1]\nclass = 0", fillcolor="#e5823b"] ;
525 -> 526 ;
527 [label="gini = 0.0\nsamples = 97\nvalue = [97, 0]\nclass = 0", fillcolor="#e58139"] ;
526 -> 527 ;
528 [label="HAIR_COLOR_CODE_CD_1 <= 0.5\ngini = 0.5\nsamples = 2\nvalue = [1, 1]\nclass = 0", fillcolor="#ffffff"] ;
526 -> 528 ;
529 [label="gini = 0.0\nsamples = 1\nvalue = [0, 1]\nclass = 1", fillcolor="#399de5"] ;
528 -> 529 ;
530 [label="gini = 0.0\nsamples = 1\nvalue = [1, 0]\nclass = 0", fillcolor="#e58139"] ;
528 -> 530 ;
531 [label="gini = 0.0\nsamples = 1\nvalue = [0, 1]\nclass = 1", fillcolor="#399de5"] ;
525 -> 531 ;
532 [label="HAIR_COLOR_CODE_CD_1 <= 0.5\ngini = 0.5\nsamples = 6\nvalue = [3, 3]\nclass = 0", fillcolor="#ffffff"] ;
524 -> 532 ;
533 [label="gini = 0.0\nsamples = 3\nvalue = [0, 3]\nclass = 1", fillcolor="#399de5"] ;
532 -> 533 ;
534 [label="gini = 0.0\nsamples = 3\nvalue = [3, 0]\nclass = 0", fillcolor="#e58139"] ;
532 -> 534 ;
535 [label="AGE_29.0 <= 0.5\ngini = 0.111\nsamples = 17\nvalue = [16, 1]\nclass = 0", fillcolor="#e78945"] ;
271 -> 535 ;
536 [label="gini = 0.0\nsamples = 16\nvalue = [16, 0]\nclass = 0", fillcolor="#e58139"] ;
535 -> 536 ;
537 [label="gini = 0.0\nsamples = 1\nvalue = [0, 1]\nclass = 1", fillcolor="#399de5"] ;
535 -> 537 ;
538 [label="NUMBER_OF_PERSONS_DISPERSED_1.0 <= 0.5\ngini = 0.018\nsamples = 2150\nvalue = [2130, 20]\nclass = 0", fillcolor="#e5823b"] ;
270 -> 538 ;
539 [label="HAIR_STYLE_CODE_CD_16 <= 0.5\ngini = 0.017\nsamples = 2139\nvalue = [2121, 18]\nclass = 0", fillcolor="#e5823b"] ;
538 -> 539 ;
540 [label="OTHER_FACTOR_I <= 0.5\ngini = 0.016\nsamples = 2136\nvalue = [2119, 17]\nclass = 0", fillcolor="#e5823b"] ;
539 -> 540 ;
541 [label="CONTACT_HOUR_9 <= 0.5\ngini = 0.006\nsamples = 1677\nvalue = [1672, 5]\nclass = 0", fillcolor="#e5813a"] ;
540 -> 541 ;
542 [label="AGE_58.0 <= 0.5\ngini = 0.004\nsamples = 1624\nvalue = [1621, 3]\nclass = 0", fillcolor="#e58139"] ;
541 -> 542 ;
543 [label="HAIR_STYLE_CODE_CD_15 <= 0.5\ngini = 0.002\nsamples = 1609\nvalue = [1607, 2]\nclass = 0", fillcolor="#e58139"] ;
542 -> 543 ;
544 [label="AGE_28.0 <= 0.5\ngini = 0.001\nsamples = 1561\nvalue = [1560, 1]\nclass = 0", fillcolor="#e58139"] ;
543 -> 544 ;
545 [label="gini = 0.0\nsamples = 1510\nvalue = [1510, 0]\nclass = 0", fillcolor="#e58139"] ;
544 -> 545 ;
546 [label="HAIR_STYLE_CODE_CD_13 <= 0.5\ngini = 0.038\nsamples = 51\nvalue = [50, 1]\nclass = 0", fillcolor="#e6843d"] ;
544 -> 546 ;
547 [label="gini = 0.0\nsamples = 47\nvalue = [47, 0]\nclass = 0", fillcolor="#e58139"] ;
546 -> 547 ;
548 [label="CONTACT_HOUR_12 <= 0.5\ngini = 0.375\nsamples = 4\nvalue = [3, 1]\nclass = 0", fillcolor="#eeab7b"] ;
546 -> 548 ;
549 [label="gini = 0.0\nsamples = 3\nvalue = [3, 0]\nclass = 0", fillcolor="#e58139"] ;
548 -> 549 ;
550 [label="gini = 0.0\nsamples = 1\nvalue = [0, 1]\nclass = 1", fillcolor="#399de5"] ;
548 -> 550 ;
551 [label="FITS_DESCRIPTION_I <= 0.5\ngini = 0.041\nsamples = 48\nvalue = [47, 1]\nclass = 0", fillcolor="#e6843d"] ;
543 -> 551 ;
552 [label="gini = 0.0\nsamples = 47\nvalue = [47, 0]\nclass = 0", fillcolor="#e58139"] ;
551 -> 552 ;
553 [label="gini = 0.0\nsamples = 1\nvalue = [0, 1]\nclass = 1", fillcolor="#399de5"] ;
551 -> 553 ;
554 [label="CONTACT_HOUR_8 <= 0.5\ngini = 0.124\nsamples = 15\nvalue = [14, 1]\nclass = 0", fillcolor="#e78a47"] ;
542 -> 554 ;
555 [label="gini = 0.0\nsamples = 13\nvalue = [13, 0]\nclass = 0", fillcolor="#e58139"] ;
554 -> 555 ;
556 [label="NAME_VERIFIED_I <= 0.5\ngini = 0.5\nsamples = 2\nvalue = [1, 1]\nclass = 0", fillcolor="#ffffff"] ;
554 -> 556 ;
557 [label="gini = 0.0\nsamples = 1\nvalue = [0, 1]\nclass = 1", fillcolor="#399de5"] ;
556 -> 557 ;
558 [label="gini = 0.0\nsamples = 1\nvalue = [1, 0]\nclass = 0", fillcolor="#e58139"] ;
556 -> 558 ;
559 [label="AGE_39.0 <= 0.5\ngini = 0.073\nsamples = 53\nvalue = [51, 2]\nclass = 0", fillcolor="#e68641"] ;
541 -> 559 ;
560 [label="AGE_37.0 <= 0.5\ngini = 0.038\nsamples = 52\nvalue = [51, 1]\nclass = 0", fillcolor="#e6833d"] ;
559 -> 560 ;
561 [label="gini = 0.0\nsamples = 49\nvalue = [49, 0]\nclass = 0", fillcolor="#e58139"] ;
560 -> 561 ;
562 [label="HAIR_STYLE_CODE_CD_22 <= 0.5\ngini = 0.444\nsamples = 3\nvalue = [2, 1]\nclass = 0", fillcolor="#f2c09c"] ;
560 -> 562 ;
563 [label="gini = 0.0\nsamples = 2\nvalue = [2, 0]\nclass = 0", fillcolor="#e58139"] ;
562 -> 563 ;
564 [label="gini = 0.0\nsamples = 1\nvalue = [0, 1]\nclass = 1", fillcolor="#399de5"] ;
562 -> 564 ;
565 [label="gini = 0.0\nsamples = 1\nvalue = [0, 1]\nclass = 1", fillcolor="#399de5"] ;
559 -> 565 ;
566 [label="AGE_53.0 <= 0.5\ngini = 0.051\nsamples = 459\nvalue = [447, 12]\nclass = 0", fillcolor="#e6843e"] ;
540 -> 566 ;
567 [label="AGE_40.0 <= 0.5\ngini = 0.043\nsamples = 453\nvalue = [443, 10]\nclass = 0", fillcolor="#e6843d"] ;
566 -> 567 ;
568 [label="AGE_19.0 <= 0.5\ngini = 0.035\nsamples = 446\nvalue = [438, 8]\nclass = 0", fillcolor="#e5833d"] ;
567 -> 568 ;
569 [label="CONTACT_HOUR_12 <= 0.5\ngini = 0.028\nsamples = 426\nvalue = [420, 6]\nclass = 0", fillcolor="#e5833c"] ;
568 -> 569 ;
570 [label="AGE_29.0 <= 0.5\ngini = 0.02\nsamples = 405\nvalue = [401, 4]\nclass = 0", fillcolor="#e5823b"] ;
569 -> 570 ;
571 [label="AGE_15.0 <= 0.5\ngini = 0.015\nsamples = 398\nvalue = [395, 3]\nclass = 0", fillcolor="#e5823b"] ;
570 -> 571 ;
572 [label="AGE_21.0 <= 0.5\ngini = 0.01\nsamples = 390\nvalue = [388, 2]\nclass = 0", fillcolor="#e5823a"] ;
571 -> 572 ;
573 [label="AGE_30.0 <= 0.5\ngini = 0.005\nsamples = 379\nvalue = [378, 1]\nclass = 0", fillcolor="#e5813a"] ;
572 -> 573 ;
574 [label="gini = 0.0\nsamples = 361\nvalue = [361, 0]\nclass = 0", fillcolor="#e58139"] ;
573 -> 574 ;
575 [label="CONTACT_HOUR_21 <= 0.5\ngini = 0.105\nsamples = 18\nvalue = [17, 1]\nclass = 0", fillcolor="#e78845"] ;
573 -> 575 ;
576 [label="gini = 0.0\nsamples = 17\nvalue = [17, 0]\nclass = 0", fillcolor="#e58139"] ;
575 -> 576 ;
577 [label="gini = 0.0\nsamples = 1\nvalue = [0, 1]\nclass = 1", fillcolor="#399de5"] ;
575 -> 577 ;
578 [label="CONTACT_HOUR_20 <= 0.5\ngini = 0.165\nsamples = 11\nvalue = [10, 1]\nclass = 0", fillcolor="#e88e4d"] ;
572 -> 578 ;
579 [label="gini = 0.0\nsamples = 9\nvalue = [9, 0]\nclass = 0", fillcolor="#e58139"] ;
578 -> 579 ;
580 [label="COMPLEXION_CODE_CD_3 <= 0.5\ngini = 0.5\nsamples = 2\nvalue = [1, 1]\nclass = 0", fillcolor="#ffffff"] ;
578 -> 580 ;
581 [label="gini = 0.0\nsamples = 1\nvalue = [0, 1]\nclass = 1", fillcolor="#399de5"] ;
580 -> 581 ;
582 [label="gini = 0.0\nsamples = 1\nvalue = [1, 0]\nclass = 0", fillcolor="#e58139"] ;
580 -> 582 ;
583 [label="CONTACT_HOUR_10 <= 0.5\ngini = 0.219\nsamples = 8\nvalue = [7, 1]\nclass = 0", fillcolor="#e99355"] ;
571 -> 583 ;
584 [label="gini = 0.0\nsamples = 7\nvalue = [7, 0]\nclass = 0", fillcolor="#e58139"] ;
583 -> 584 ;
585 [label="gini = 0.0\nsamples = 1\nvalue = [0, 1]\nclass = 1", fillcolor="#399de5"] ;
583 -> 585 ;
586 [label="HAIR_COLOR_CODE_CD_0 <= 0.5\ngini = 0.245\nsamples = 7\nvalue = [6, 1]\nclass = 0", fillcolor="#e9965a"] ;
570 -> 586 ;
587 [label="gini = 0.0\nsamples = 6\nvalue = [6, 0]\nclass = 0", fillcolor="#e58139"] ;
586 -> 587 ;
588 [label="gini = 0.0\nsamples = 1\nvalue = [0, 1]\nclass = 1", fillcolor="#399de5"] ;
586 -> 588 ;
589 [label="HAIR_COLOR_CODE_CD_4 <= 0.5\ngini = 0.172\nsamples = 21\nvalue = [19, 2]\nclass = 0", fillcolor="#e88e4e"] ;
569 -> 589 ;
590 [label="AGE_31.0 <= 0.5\ngini = 0.095\nsamples = 20\nvalue = [19, 1]\nclass = 0", fillcolor="#e68843"] ;
589 -> 590 ;
591 [label="gini = 0.0\nsamples = 18\nvalue = [18, 0]\nclass = 0", fillcolor="#e58139"] ;
590 -> 591 ;
592 [label="COMPLEXION_CODE_CD_8 <= 0.5\ngini = 0.5\nsamples = 2\nvalue = [1, 1]\nclass = 0", fillcolor="#ffffff"] ;
590 -> 592 ;
593 [label="gini = 0.0\nsamples = 1\nvalue = [1, 0]\nclass = 0", fillcolor="#e58139"] ;
592 -> 593 ;
594 [label="gini = 0.0\nsamples = 1\nvalue = [0, 1]\nclass = 1", fillcolor="#399de5"] ;
592 -> 594 ;
595 [label="gini = 0.0\nsamples = 1\nvalue = [0, 1]\nclass = 1", fillcolor="#399de5"] ;
589 -> 595 ;
596 [label="CONTACT_HOUR_21 <= 0.5\ngini = 0.18\nsamples = 20\nvalue = [18, 2]\nclass = 0", fillcolor="#e88f4f"] ;
568 -> 596 ;
597 [label="COMPLEXION_CODE_CD_9 <= 0.5\ngini = 0.1\nsamples = 19\nvalue = [18, 1]\nclass = 0", fillcolor="#e68844"] ;
596 -> 597 ;
598 [label="gini = 0.0\nsamples = 18\nvalue = [18, 0]\nclass = 0", fillcolor="#e58139"] ;
597 -> 598 ;
599 [label="gini = 0.0\nsamples = 1\nvalue = [0, 1]\nclass = 1", fillcolor="#399de5"] ;
597 -> 599 ;
600 [label="gini = 0.0\nsamples = 1\nvalue = [0, 1]\nclass = 1", fillcolor="#399de5"] ;
596 -> 600 ;
601 [label="COMPLEXION_CODE_CD_2 <= 0.5\ngini = 0.408\nsamples = 7\nvalue = [5, 2]\nclass = 0", fillcolor="#efb388"] ;
567 -> 601 ;
602 [label="gini = 0.0\nsamples = 5\nvalue = [5, 0]\nclass = 0", fillcolor="#e58139"] ;
601 -> 602 ;
603 [label="gini = 0.0\nsamples = 2\nvalue = [0, 2]\nclass = 1", fillcolor="#399de5"] ;
601 -> 603 ;
604 [label="HAIR_COLOR_CODE_CD_6 <= 0.5\ngini = 0.444\nsamples = 6\nvalue = [4, 2]\nclass = 0", fillcolor="#f2c09c"] ;
566 -> 604 ;
605 [label="gini = 0.0\nsamples = 3\nvalue = [3, 0]\nclass = 0", fillcolor="#e58139"] ;
604 -> 605 ;
606 [label="COMPLEXION_CODE_CD_3 <= 0.5\ngini = 0.444\nsamples = 3\nvalue = [1, 2]\nclass = 1", fillcolor="#9ccef2"] ;
604 -> 606 ;
607 [label="gini = 0.0\nsamples = 1\nvalue = [1, 0]\nclass = 0", fillcolor="#e58139"] ;
606 -> 607 ;
608 [label="gini = 0.0\nsamples = 2\nvalue = [0, 2]\nclass = 1", fillcolor="#399de5"] ;
606 -> 608 ;
609 [label="CONTACT_HOUR_13 <= 0.5\ngini = 0.444\nsamples = 3\nvalue = [2, 1]\nclass = 0", fillcolor="#f2c09c"] ;
539 -> 609 ;
610 [label="gini = 0.0\nsamples = 2\nvalue = [2, 0]\nclass = 0", fillcolor="#e58139"] ;
609 -> 610 ;
611 [label="gini = 0.0\nsamples = 1\nvalue = [0, 1]\nclass = 1", fillcolor="#399de5"] ;
609 -> 611 ;
612 [label="CONTACT_HOUR_18 <= 0.5\ngini = 0.298\nsamples = 11\nvalue = [9, 2]\nclass = 0", fillcolor="#eb9d65"] ;
538 -> 612 ;
613 [label="gini = 0.0\nsamples = 9\nvalue = [9, 0]\nclass = 0", fillcolor="#e58139"] ;
612 -> 613 ;
614 [label="gini = 0.0\nsamples = 2\nvalue = [0, 2]\nclass = 1", fillcolor="#399de5"] ;
612 -> 614 ;
615 [label="HAIR_STYLE_CODE_CD_30 <= 0.5\ngini = 0.017\nsamples = 2694\nvalue = [2671, 23]\nclass = 0", fillcolor="#e5823b"] ;
269 -> 615 ;
616 [label="AGE_73.0 <= 0.5\ngini = 0.01\nsamples = 2397\nvalue = [2385, 12]\nclass = 0", fillcolor="#e5823a"] ;
615 -> 616 ;
617 [label="HAIR_STYLE_CODE_CD_28 <= 0.5\ngini = 0.009\nsamples = 2393\nvalue = [2382, 11]\nclass = 0", fillcolor="#e5823a"] ;
616 -> 617 ;
618 [label="HAIR_STYLE_CODE_CD_15 <= 0.5\ngini = 0.008\nsamples = 2384\nvalue = [2374, 10]\nclass = 0", fillcolor="#e5823a"] ;
617 -> 618 ;
619 [label="HAIR_COLOR_CODE_CD_12 <= 0.5\ngini = 0.006\nsamples = 2286\nvalue = [2279, 7]\nclass = 0", fillcolor="#e5813a"] ;
618 -> 619 ;
620 [label="HAIR_STYLE_CODE_CD_21 <= 0.5\ngini = 0.005\nsamples = 2272\nvalue = [2266, 6]\nclass = 0", fillcolor="#e5813a"] ;
619 -> 620 ;
621 [label="CONTACT_HOUR_2 <= 0.5\ngini = 0.004\nsamples = 2250\nvalue = [2245, 5]\nclass = 0", fillcolor="#e58139"] ;
620 -> 621 ;
622 [label="HAIR_STYLE_CODE_CD_3 <= 0.5\ngini = 0.004\nsamples = 2225\nvalue = [2221, 4]\nclass = 0", fillcolor="#e58139"] ;
621 -> 622 ;
623 [label="AGE_39.0 <= 0.5\ngini = 0.003\nsamples = 2198\nvalue = [2195, 3]\nclass = 0", fillcolor="#e58139"] ;
622 -> 623 ;
624 [label="AGE_42.0 <= 0.5\ngini = 0.002\nsamples = 2158\nvalue = [2156, 2]\nclass = 0", fillcolor="#e58139"] ;
623 -> 624 ;
625 [label="AGE_35.0 <= 0.5\ngini = 0.001\nsamples = 2116\nvalue = [2115, 1]\nclass = 0", fillcolor="#e58139"] ;
624 -> 625 ;
626 [label="gini = 0.0\nsamples = 2045\nvalue = [2045, 0]\nclass = 0", fillcolor="#e58139"] ;
625 -> 626 ;
627 [label="CONTACT_HOUR_22 <= 0.5\ngini = 0.028\nsamples = 71\nvalue = [70, 1]\nclass = 0", fillcolor="#e5833c"] ;
625 -> 627 ;
628 [label="gini = 0.0\nsamples = 68\nvalue = [68, 0]\nclass = 0", fillcolor="#e58139"] ;
627 -> 628 ;
629 [label="COMPLEXION_CODE_CD_6 <= 0.5\ngini = 0.444\nsamples = 3\nvalue = [2, 1]\nclass = 0", fillcolor="#f2c09c"] ;
627 -> 629 ;
630 [label="gini = 0.0\nsamples = 2\nvalue = [2, 0]\nclass = 0", fillcolor="#e58139"] ;
629 -> 630 ;
631 [label="gini = 0.0\nsamples = 1\nvalue = [0, 1]\nclass = 1", fillcolor="#399de5"] ;
629 -> 631 ;
632 [label="CONTACT_HOUR_13 <= 0.5\ngini = 0.046\nsamples = 42\nvalue = [41, 1]\nclass = 0", fillcolor="#e6843e"] ;
624 -> 632 ;
633 [label="gini = 0.0\nsamples = 40\nvalue = [40, 0]\nclass = 0", fillcolor="#e58139"] ;
632 -> 633 ;
634 [label="OTHER_FACTOR_I <= 0.5\ngini = 0.5\nsamples = 2\nvalue = [1, 1]\nclass = 0", fillcolor="#ffffff"] ;
632 -> 634 ;
635 [label="gini = 0.0\nsamples = 1\nvalue = [1, 0]\nclass = 0", fillcolor="#e58139"] ;
634 -> 635 ;
636 [label="gini = 0.0\nsamples = 1\nvalue = [0, 1]\nclass = 1", fillcolor="#399de5"] ;
634 -> 636 ;
637 [label="CONTACT_HOUR_19 <= 0.5\ngini = 0.049\nsamples = 40\nvalue = [39, 1]\nclass = 0", fillcolor="#e6843e"] ;
623 -> 637 ;
638 [label="gini = 0.0\nsamples = 37\nvalue = [37, 0]\nclass = 0", fillcolor="#e58139"] ;
637 -> 638 ;
639 [label="COMPLEXION_CODE_CD_3 <= 0.5\ngini = 0.444\nsamples = 3\nvalue = [2, 1]\nclass = 0", fillcolor="#f2c09c"] ;
637 -> 639 ;
640 [label="gini = 0.0\nsamples = 1\nvalue = [0, 1]\nclass = 1", fillcolor="#399de5"] ;
639 -> 640 ;
641 [label="gini = 0.0\nsamples = 2\nvalue = [2, 0]\nclass = 0", fillcolor="#e58139"] ;
639 -> 641 ;
642 [label="AGE_33.0 <= 0.5\ngini = 0.071\nsamples = 27\nvalue = [26, 1]\nclass = 0", fillcolor="#e68641"] ;
622 -> 642 ;
643 [label="gini = 0.0\nsamples = 26\nvalue = [26, 0]\nclass = 0", fillcolor="#e58139"] ;
642 -> 643 ;
644 [label="gini = 0.0\nsamples = 1\nvalue = [0, 1]\nclass = 1", fillcolor="#399de5"] ;
642 -> 644 ;
645 [label="HAIR_COLOR_CODE_CD_2 <= 0.5\ngini = 0.077\nsamples = 25\nvalue = [24, 1]\nclass = 0", fillcolor="#e68641"] ;
621 -> 645 ;
646 [label="gini = 0.0\nsamples = 24\nvalue = [24, 0]\nclass = 0", fillcolor="#e58139"] ;
645 -> 646 ;
647 [label="gini = 0.0\nsamples = 1\nvalue = [0, 1]\nclass = 1", fillcolor="#399de5"] ;
645 -> 647 ;
648 [label="CONTACT_HOUR_18 <= 0.5\ngini = 0.087\nsamples = 22\nvalue = [21, 1]\nclass = 0", fillcolor="#e68742"] ;
620 -> 648 ;
649 [label="gini = 0.0\nsamples = 21\nvalue = [21, 0]\nclass = 0", fillcolor="#e58139"] ;
648 -> 649 ;
650 [label="gini = 0.0\nsamples = 1\nvalue = [0, 1]\nclass = 1", fillcolor="#399de5"] ;
648 -> 650 ;
651 [label="AGE_32.0 <= 0.5\ngini = 0.133\nsamples = 14\nvalue = [13, 1]\nclass = 0", fillcolor="#e78b48"] ;
619 -> 651 ;
652 [label="gini = 0.0\nsamples = 13\nvalue = [13, 0]\nclass = 0", fillcolor="#e58139"] ;
651 -> 652 ;
653 [label="gini = 0.0\nsamples = 1\nvalue = [0, 1]\nclass = 1", fillcolor="#399de5"] ;
651 -> 653 ;
654 [label="AGE_61.0 <= 0.5\ngini = 0.059\nsamples = 98\nvalue = [95, 3]\nclass = 0", fillcolor="#e6853f"] ;
618 -> 654 ;
655 [label="CONTACT_HOUR_1 <= 0.5\ngini = 0.041\nsamples = 96\nvalue = [94, 2]\nclass = 0", fillcolor="#e6843d"] ;
654 -> 655 ;
656 [label="CONTACT_HOUR_14 <= 0.5\ngini = 0.021\nsamples = 94\nvalue = [93, 1]\nclass = 0", fillcolor="#e5823b"] ;
655 -> 656 ;
657 [label="gini = 0.0\nsamples = 91\nvalue = [91, 0]\nclass = 0", fillcolor="#e58139"] ;
656 -> 657 ;
658 [label="RACE_CODE_CD_7 <= 0.5\ngini = 0.444\nsamples = 3\nvalue = [2, 1]\nclass = 0", fillcolor="#f2c09c"] ;
656 -> 658 ;
659 [label="gini = 0.0\nsamples = 2\nvalue = [2, 0]\nclass = 0", fillcolor="#e58139"] ;
658 -> 659 ;
660 [label="gini = 0.0\nsamples = 1\nvalue = [0, 1]\nclass = 1", fillcolor="#399de5"] ;
658 -> 660 ;
661 [label="BUILD_CODE_CD_3 <= 0.5\ngini = 0.5\nsamples = 2\nvalue = [1, 1]\nclass = 0", fillcolor="#ffffff"] ;
655 -> 661 ;
662 [label="gini = 0.0\nsamples = 1\nvalue = [1, 0]\nclass = 0", fillcolor="#e58139"] ;
661 -> 662 ;
663 [label="gini = 0.0\nsamples = 1\nvalue = [0, 1]\nclass = 1", fillcolor="#399de5"] ;
661 -> 663 ;
664 [label="RACE_CODE_CD_1 <= 0.5\ngini = 0.5\nsamples = 2\nvalue = [1, 1]\nclass = 0", fillcolor="#ffffff"] ;
654 -> 664 ;
665 [label="gini = 0.0\nsamples = 1\nvalue = [0, 1]\nclass = 1", fillcolor="#399de5"] ;
664 -> 665 ;
666 [label="gini = 0.0\nsamples = 1\nvalue = [1, 0]\nclass = 0", fillcolor="#e58139"] ;
664 -> 666 ;
667 [label="AGE_42.0 <= 0.5\ngini = 0.198\nsamples = 9\nvalue = [8, 1]\nclass = 0", fillcolor="#e89152"] ;
617 -> 667 ;
668 [label="gini = 0.0\nsamples = 8\nvalue = [8, 0]\nclass = 0", fillcolor="#e58139"] ;
667 -> 668 ;
669 [label="gini = 0.0\nsamples = 1\nvalue = [0, 1]\nclass = 1", fillcolor="#399de5"] ;
667 -> 669 ;
670 [label="CONTACT_HOUR_12 <= 0.5\ngini = 0.375\nsamples = 4\nvalue = [3, 1]\nclass = 0", fillcolor="#eeab7b"] ;
616 -> 670 ;
671 [label="gini = 0.0\nsamples = 3\nvalue = [3, 0]\nclass = 0", fillcolor="#e58139"] ;
670 -> 671 ;
672 [label="gini = 0.0\nsamples = 1\nvalue = [0, 1]\nclass = 1", fillcolor="#399de5"] ;
670 -> 672 ;
673 [label="OTHER_FACTOR_I <= 0.5\ngini = 0.071\nsamples = 297\nvalue = [286, 11]\nclass = 0", fillcolor="#e68641"] ;
615 -> 673 ;
674 [label="gini = 0.0\nsamples = 231\nvalue = [231, 0]\nclass = 0", fillcolor="#e58139"] ;
673 -> 674 ;
675 [label="HAIR_COLOR_CODE_CD_6 <= 0.5\ngini = 0.278\nsamples = 66\nvalue = [55, 11]\nclass = 0", fillcolor="#ea9a61"] ;
673 -> 675 ;
676 [label="COMPLEXION_CODE_CD_3 <= 0.5\ngini = 0.18\nsamples = 60\nvalue = [54, 6]\nclass = 0", fillcolor="#e88f4f"] ;
675 -> 676 ;
677 [label="AGE_36.0 <= 0.5\ngini = 0.042\nsamples = 47\nvalue = [46, 1]\nclass = 0", fillcolor="#e6843d"] ;
676 -> 677 ;
678 [label="gini = 0.0\nsamples = 45\nvalue = [45, 0]\nclass = 0", fillcolor="#e58139"] ;
677 -> 678 ;
679 [label="RACE_CODE_CD_7 <= 0.5\ngini = 0.5\nsamples = 2\nvalue = [1, 1]\nclass = 0", fillcolor="#ffffff"] ;
677 -> 679 ;
680 [label="gini = 0.0\nsamples = 1\nvalue = [1, 0]\nclass = 0", fillcolor="#e58139"] ;
679 -> 680 ;
681 [label="gini = 0.0\nsamples = 1\nvalue = [0, 1]\nclass = 1", fillcolor="#399de5"] ;
679 -> 681 ;
682 [label="CONTACT_HOUR_17 <= 0.5\ngini = 0.473\nsamples = 13\nvalue = [8, 5]\nclass = 0", fillcolor="#f5d0b5"] ;
676 -> 682 ;
683 [label="CONTACT_HOUR_11 <= 0.5\ngini = 0.5\nsamples = 10\nvalue = [5, 5]\nclass = 0", fillcolor="#ffffff"] ;
682 -> 683 ;
684 [label="BUILD_CODE_CD_0 <= 0.5\ngini = 0.469\nsamples = 8\nvalue = [3, 5]\nclass = 1", fillcolor="#b0d8f5"] ;
683 -> 684 ;
685 [label="gini = 0.0\nsamples = 3\nvalue = [0, 3]\nclass = 1", fillcolor="#399de5"] ;
684 -> 685 ;
686 [label="PAT_DOWN_RECEIPT_GIVEN_I <= 0.5\ngini = 0.48\nsamples = 5\nvalue = [3, 2]\nclass = 0", fillcolor="#f6d5bd"] ;
684 -> 686 ;
687 [label="CONTACT_HOUR_13 <= 0.5\ngini = 0.375\nsamples = 4\nvalue = [3, 1]\nclass = 0", fillcolor="#eeab7b"] ;
686 -> 687 ;
688 [label="gini = 0.0\nsamples = 3\nvalue = [3, 0]\nclass = 0", fillcolor="#e58139"] ;
687 -> 688 ;
689 [label="gini = 0.0\nsamples = 1\nvalue = [0, 1]\nclass = 1", fillcolor="#399de5"] ;
687 -> 689 ;
690 [label="gini = 0.0\nsamples = 1\nvalue = [0, 1]\nclass = 1", fillcolor="#399de5"] ;
686 -> 690 ;
691 [label="gini = 0.0\nsamples = 2\nvalue = [2, 0]\nclass = 0", fillcolor="#e58139"] ;
683 -> 691 ;
692 [label="gini = 0.0\nsamples = 3\nvalue = [3, 0]\nclass = 0", fillcolor="#e58139"] ;
682 -> 692 ;
693 [label="SEX_CODE_CD_1 <= 0.5\ngini = 0.278\nsamples = 6\nvalue = [1, 5]\nclass = 1", fillcolor="#61b1ea"] ;
675 -> 693 ;
694 [label="gini = 0.0\nsamples = 1\nvalue = [1, 0]\nclass = 0", fillcolor="#e58139"] ;
693 -> 694 ;
695 [label="gini = 0.0\nsamples = 5\nvalue = [0, 5]\nclass = 1", fillcolor="#399de5"] ;
693 -> 695 ;
696 [label="HAIR_STYLE_CODE_CD_21 <= 0.5\ngini = 0.018\nsamples = 3678\nvalue = [3644, 34]\nclass = 0", fillcolor="#e5823b"] ;
268 -> 696 ;
697 [label="HAIR_STYLE_CODE_CD_4 <= 0.5\ngini = 0.017\nsamples = 3661\nvalue = [3629, 32]\nclass = 0", fillcolor="#e5823b"] ;
696 -> 697 ;
698 [label="CONTACT_HOUR_12 <= 0.5\ngini = 0.017\nsamples = 3656\nvalue = [3625, 31]\nclass = 0", fillcolor="#e5823b"] ;
697 -> 698 ;
699 [label="CONTACT_HOUR_13 <= 0.5\ngini = 0.014\nsamples = 3497\nvalue = [3472, 25]\nclass = 0", fillcolor="#e5823a"] ;
698 -> 699 ;
700 [label="HAIR_STYLE_CODE_CD_0 <= 0.5\ngini = 0.012\nsamples = 3361\nvalue = [3341, 20]\nclass = 0", fillcolor="#e5823a"] ;
699 -> 700 ;
701 [label="CONTACT_HOUR_10 <= 0.5\ngini = 0.01\nsamples = 3307\nvalue = [3290, 17]\nclass = 0", fillcolor="#e5823a"] ;
700 -> 701 ;
702 [label="AGE_24.0 <= 0.5\ngini = 0.007\nsamples = 3093\nvalue = [3082, 11]\nclass = 0", fillcolor="#e5813a"] ;
701 -> 702 ;
703 [label="AGE_39.0 <= 0.5\ngini = 0.005\nsamples = 2954\nvalue = [2947, 7]\nclass = 0", fillcolor="#e58139"] ;
702 -> 703 ;
704 [label="AGE_49.0 <= 0.5\ngini = 0.004\nsamples = 2916\nvalue = [2910, 6]\nclass = 0", fillcolor="#e58139"] ;
703 -> 704 ;
705 [label="SEARCH_CANNABIS_I <= 0.5\ngini = 0.003\nsamples = 2877\nvalue = [2872, 5]\nclass = 0", fillcolor="#e58139"] ;
704 -> 705 ;
706 [label="CONTACT_HOUR_22 <= 0.5\ngini = 0.003\nsamples = 2837\nvalue = [2833, 4]\nclass = 0", fillcolor="#e58139"] ;
705 -> 706 ;
707 [label="AGE_30.0 <= 0.5\ngini = 0.001\nsamples = 2681\nvalue = [2679, 2]\nclass = 0", fillcolor="#e58139"] ;
706 -> 707 ;
708 [label="HAIR_STYLE_CODE_CD_15 <= 0.5\ngini = 0.001\nsamples = 2620\nvalue = [2619, 1]\nclass = 0", fillcolor="#e58139"] ;
707 -> 708 ;
709 [label="gini = 0.0\nsamples = 2546\nvalue = [2546, 0]\nclass = 0", fillcolor="#e58139"] ;
708 -> 709 ;
710 [label="CONTACT_HOUR_21 <= 0.5\ngini = 0.027\nsamples = 74\nvalue = [73, 1]\nclass = 0", fillcolor="#e5833c"] ;
708 -> 710 ;
711 [label="gini = 0.0\nsamples = 72\nvalue = [72, 0]\nclass = 0", fillcolor="#e58139"] ;
710 -> 711 ;
712 [label="SEX_CODE_CD_0 <= 0.5\ngini = 0.5\nsamples = 2\nvalue = [1, 1]\nclass = 0", fillcolor="#ffffff"] ;
710 -> 712 ;
713 [label="gini = 0.0\nsamples = 1\nvalue = [1, 0]\nclass = 0", fillcolor="#e58139"] ;
712 -> 713 ;
714 [label="gini = 0.0\nsamples = 1\nvalue = [0, 1]\nclass = 1", fillcolor="#399de5"] ;
712 -> 714 ;
715 [label="CONTACT_HOUR_8 <= 0.5\ngini = 0.032\nsamples = 61\nvalue = [60, 1]\nclass = 0", fillcolor="#e5833c"] ;
707 -> 715 ;
716 [label="gini = 0.0\nsamples = 59\nvalue = [59, 0]\nclass = 0", fillcolor="#e58139"] ;
715 -> 716 ;
717 [label="FITS_DESCRIPTION_I <= 0.5\ngini = 0.5\nsamples = 2\nvalue = [1, 1]\nclass = 0", fillcolor="#ffffff"] ;
715 -> 717 ;
718 [label="gini = 0.0\nsamples = 1\nvalue = [0, 1]\nclass = 1", fillcolor="#399de5"] ;
717 -> 718 ;
719 [label="gini = 0.0\nsamples = 1\nvalue = [1, 0]\nclass = 0", fillcolor="#e58139"] ;
717 -> 719 ;
720 [label="AGE_17.0 <= 0.5\ngini = 0.025\nsamples = 156\nvalue = [154, 2]\nclass = 0", fillcolor="#e5833c"] ;
706 -> 720 ;
721 [label="AGE_25.0 <= 0.5\ngini = 0.013\nsamples = 150\nvalue = [149, 1]\nclass = 0", fillcolor="#e5823a"] ;
720 -> 721 ;
722 [label="gini = 0.0\nsamples = 143\nvalue = [143, 0]\nclass = 0", fillcolor="#e58139"] ;
721 -> 722 ;
723 [label="HAIR_STYLE_CODE_CD_13 <= 0.5\ngini = 0.245\nsamples = 7\nvalue = [6, 1]\nclass = 0", fillcolor="#e9965a"] ;
721 -> 723 ;
724 [label="gini = 0.0\nsamples = 6\nvalue = [6, 0]\nclass = 0", fillcolor="#e58139"] ;
723 -> 724 ;
725 [label="gini = 0.0\nsamples = 1\nvalue = [0, 1]\nclass = 1", fillcolor="#399de5"] ;
723 -> 725 ;
726 [label="VEHICLE_INVOLVED_I <= 0.5\ngini = 0.278\nsamples = 6\nvalue = [5, 1]\nclass = 0", fillcolor="#ea9a61"] ;
720 -> 726 ;
727 [label="gini = 0.0\nsamples = 3\nvalue = [3, 0]\nclass = 0", fillcolor="#e58139"] ;
726 -> 727 ;
728 [label="NAME_VERIFIED_I <= 0.5\ngini = 0.444\nsamples = 3\nvalue = [2, 1]\nclass = 0", fillcolor="#f2c09c"] ;
726 -> 728 ;
729 [label="gini = 0.0\nsamples = 1\nvalue = [0, 1]\nclass = 1", fillcolor="#399de5"] ;
728 -> 729 ;
730 [label="gini = 0.0\nsamples = 2\nvalue = [2, 0]\nclass = 0", fillcolor="#e58139"] ;
728 -> 730 ;
731 [label="HAIR_STYLE_CODE_CD_3 <= 0.5\ngini = 0.049\nsamples = 40\nvalue = [39, 1]\nclass = 0", fillcolor="#e6843e"] ;
705 -> 731 ;
732 [label="gini = 0.0\nsamples = 39\nvalue = [39, 0]\nclass = 0", fillcolor="#e58139"] ;
731 -> 732 ;
733 [label="gini = 0.0\nsamples = 1\nvalue = [0, 1]\nclass = 1", fillcolor="#399de5"] ;
731 -> 733 ;
734 [label="CONTACT_HOUR_9 <= 0.5\ngini = 0.05\nsamples = 39\nvalue = [38, 1]\nclass = 0", fillcolor="#e6843e"] ;
704 -> 734 ;
735 [label="gini = 0.0\nsamples = 36\nvalue = [36, 0]\nclass = 0", fillcolor="#e58139"] ;
734 -> 735 ;
736 [label="OTHER_FACTOR_I <= 0.5\ngini = 0.444\nsamples = 3\nvalue = [2, 1]\nclass = 0", fillcolor="#f2c09c"] ;
734 -> 736 ;
737 [label="gini = 0.0\nsamples = 2\nvalue = [2, 0]\nclass = 0", fillcolor="#e58139"] ;
736 -> 737 ;
738 [label="gini = 0.0\nsamples = 1\nvalue = [0, 1]\nclass = 1", fillcolor="#399de5"] ;
736 -> 738 ;
739 [label="CONTACT_HOUR_9 <= 0.5\ngini = 0.051\nsamples = 38\nvalue = [37, 1]\nclass = 0", fillcolor="#e6843e"] ;
703 -> 739 ;
740 [label="gini = 0.0\nsamples = 37\nvalue = [37, 0]\nclass = 0", fillcolor="#e58139"] ;
739 -> 740 ;
741 [label="gini = 0.0\nsamples = 1\nvalue = [0, 1]\nclass = 1", fillcolor="#399de5"] ;
739 -> 741 ;
742 [label="EYE_COLOR_CODE_CD_1 <= 0.5\ngini = 0.056\nsamples = 139\nvalue = [135, 4]\nclass = 0", fillcolor="#e6853f"] ;
702 -> 742 ;
743 [label="CONTACT_HOUR_0 <= 0.5\ngini = 0.043\nsamples = 138\nvalue = [135, 3]\nclass = 0", fillcolor="#e6843d"] ;
742 -> 743 ;
744 [label="CONTACT_HOUR_19 <= 0.5\ngini = 0.03\nsamples = 133\nvalue = [131, 2]\nclass = 0", fillcolor="#e5833c"] ;
743 -> 744 ;
745 [label="CONTACT_HOUR_18 <= 0.5\ngini = 0.016\nsamples = 121\nvalue = [120, 1]\nclass = 0", fillcolor="#e5823b"] ;
744 -> 745 ;
746 [label="gini = 0.0\nsamples = 109\nvalue = [109, 0]\nclass = 0", fillcolor="#e58139"] ;
745 -> 746 ;
747 [label="HAIR_STYLE_CODE_CD_22 <= 0.5\ngini = 0.153\nsamples = 12\nvalue = [11, 1]\nclass = 0", fillcolor="#e78c4b"] ;
745 -> 747 ;
748 [label="gini = 0.0\nsamples = 9\nvalue = [9, 0]\nclass = 0", fillcolor="#e58139"] ;
747 -> 748 ;
749 [label="NAME_VERIFIED_I <= 0.5\ngini = 0.444\nsamples = 3\nvalue = [2, 1]\nclass = 0", fillcolor="#f2c09c"] ;
747 -> 749 ;
750 [label="gini = 0.5\nsamples = 2\nvalue = [1, 1]\nclass = 0", fillcolor="#ffffff"] ;
749 -> 750 ;
751 [label="gini = 0.0\nsamples = 1\nvalue = [1, 0]\nclass = 0", fillcolor="#e58139"] ;
749 -> 751 ;
752 [label="COMPLEXION_CODE_CD_9 <= 0.5\ngini = 0.153\nsamples = 12\nvalue = [11, 1]\nclass = 0", fillcolor="#e78c4b"] ;
744 -> 752 ;
753 [label="gini = 0.0\nsamples = 10\nvalue = [10, 0]\nclass = 0", fillcolor="#e58139"] ;
752 -> 753 ;
754 [label="BUILD_CODE_CD_4 <= 0.5\ngini = 0.5\nsamples = 2\nvalue = [1, 1]\nclass = 0", fillcolor="#ffffff"] ;
752 -> 754 ;
755 [label="gini = 0.0\nsamples = 1\nvalue = [0, 1]\nclass = 1", fillcolor="#399de5"] ;
754 -> 755 ;
756 [label="gini = 0.0\nsamples = 1\nvalue = [1, 0]\nclass = 0", fillcolor="#e58139"] ;
754 -> 756 ;
757 [label="BUILD_CODE_CD_3 <= 0.5\ngini = 0.32\nsamples = 5\nvalue = [4, 1]\nclass = 0", fillcolor="#eca06a"] ;
743 -> 757 ;
758 [label="gini = 0.0\nsamples = 3\nvalue = [3, 0]\nclass = 0", fillcolor="#e58139"] ;
757 -> 758 ;
759 [label="COMPLEXION_CODE_CD_9 <= 0.5\ngini = 0.5\nsamples = 2\nvalue = [1, 1]\nclass = 0", fillcolor="#ffffff"] ;
757 -> 759 ;
760 [label="gini = 0.0\nsamples = 1\nvalue = [1, 0]\nclass = 0", fillcolor="#e58139"] ;
759 -> 760 ;
761 [label="gini = 0.0\nsamples = 1\nvalue = [0, 1]\nclass = 1", fillcolor="#399de5"] ;
759 -> 761 ;
762 [label="gini = 0.0\nsamples = 1\nvalue = [0, 1]\nclass = 1", fillcolor="#399de5"] ;
742 -> 762 ;
763 [label="AGE_50.0 <= 0.5\ngini = 0.055\nsamples = 214\nvalue = [208, 6]\nclass = 0", fillcolor="#e6853f"] ;
701 -> 763 ;
764 [label="HAIR_STYLE_CODE_CD_15 <= 0.5\ngini = 0.046\nsamples = 212\nvalue = [207, 5]\nclass = 0", fillcolor="#e6843e"] ;
763 -> 764 ;
765 [label="AGE_22.0 <= 0.5\ngini = 0.029\nsamples = 204\nvalue = [201, 3]\nclass = 0", fillcolor="#e5833c"] ;
764 -> 765 ;
766 [label="AGE_31.0 <= 0.5\ngini = 0.02\nsamples = 201\nvalue = [199, 2]\nclass = 0", fillcolor="#e5823b"] ;
765 -> 766 ;
767 [label="AGE_20.0 <= 0.5\ngini = 0.01\nsamples = 196\nvalue = [195, 1]\nclass = 0", fillcolor="#e5823a"] ;
766 -> 767 ;
768 [label="gini = 0.0\nsamples = 189\nvalue = [189, 0]\nclass = 0", fillcolor="#e58139"] ;
767 -> 768 ;
769 [label="EYE_COLOR_CODE_CD_0 <= 0.5\ngini = 0.245\nsamples = 7\nvalue = [6, 1]\nclass = 0", fillcolor="#e9965a"] ;
767 -> 769 ;
770 [label="gini = 0.0\nsamples = 6\nvalue = [6, 0]\nclass = 0", fillcolor="#e58139"] ;
769 -> 770 ;
771 [label="gini = 0.0\nsamples = 1\nvalue = [0, 1]\nclass = 1", fillcolor="#399de5"] ;
769 -> 771 ;
772 [label="COMPLEXION_CODE_CD_2 <= 0.5\ngini = 0.32\nsamples = 5\nvalue = [4, 1]\nclass = 0", fillcolor="#eca06a"] ;
766 -> 772 ;
773 [label="gini = 0.0\nsamples = 4\nvalue = [4, 0]\nclass = 0", fillcolor="#e58139"] ;
772 -> 773 ;
774 [label="gini = 0.0\nsamples = 1\nvalue = [0, 1]\nclass = 1", fillcolor="#399de5"] ;
772 -> 774 ;
775 [label="COMPLEXION_CODE_CD_2 <= 0.5\ngini = 0.444\nsamples = 3\nvalue = [2, 1]\nclass = 0", fillcolor="#f2c09c"] ;
765 -> 775 ;
776 [label="gini = 0.0\nsamples = 2\nvalue = [2, 0]\nclass = 0", fillcolor="#e58139"] ;
775 -> 776 ;
777 [label="gini = 0.0\nsamples = 1\nvalue = [0, 1]\nclass = 1", fillcolor="#399de5"] ;
775 -> 777 ;
778 [label="OTHER_FACTOR_I <= 0.5\ngini = 0.375\nsamples = 8\nvalue = [6, 2]\nclass = 0", fillcolor="#eeab7b"] ;
764 -> 778 ;
779 [label="gini = 0.0\nsamples = 5\nvalue = [5, 0]\nclass = 0", fillcolor="#e58139"] ;
778 -> 779 ;
780 [label="AGE_54.0 <= 0.5\ngini = 0.444\nsamples = 3\nvalue = [1, 2]\nclass = 1", fillcolor="#9ccef2"] ;
778 -> 780 ;
781 [label="gini = 0.0\nsamples = 2\nvalue = [0, 2]\nclass = 1", fillcolor="#399de5"] ;
780 -> 781 ;
782 [label="gini = 0.0\nsamples = 1\nvalue = [1, 0]\nclass = 0", fillcolor="#e58139"] ;
780 -> 782 ;
783 [label="HAIR_STYLE_CODE_CD_15 <= 0.5\ngini = 0.5\nsamples = 2\nvalue = [1, 1]\nclass = 0", fillcolor="#ffffff"] ;
763 -> 783 ;
784 [label="gini = 0.0\nsamples = 1\nvalue = [0, 1]\nclass = 1", fillcolor="#399de5"] ;
783 -> 784 ;
785 [label="gini = 0.0\nsamples = 1\nvalue = [1, 0]\nclass = 0", fillcolor="#e58139"] ;
783 -> 785 ;
786 [label="COMPLEXION_CODE_CD_3 <= 0.5\ngini = 0.105\nsamples = 54\nvalue = [51, 3]\nclass = 0", fillcolor="#e78845"] ;
700 -> 786 ;
787 [label="gini = 0.0\nsamples = 48\nvalue = [48, 0]\nclass = 0", fillcolor="#e58139"] ;
786 -> 787 ;
788 [label="HAIR_COLOR_CODE_CD_1 <= 0.5\ngini = 0.5\nsamples = 6\nvalue = [3, 3]\nclass = 0", fillcolor="#ffffff"] ;
786 -> 788 ;
789 [label="gini = 0.0\nsamples = 2\nvalue = [2, 0]\nclass = 0", fillcolor="#e58139"] ;
788 -> 789 ;
790 [label="AGE_53.0 <= 0.5\ngini = 0.375\nsamples = 4\nvalue = [1, 3]\nclass = 1", fillcolor="#7bbeee"] ;
788 -> 790 ;
791 [label="gini = 0.0\nsamples = 3\nvalue = [0, 3]\nclass = 1", fillcolor="#399de5"] ;
790 -> 791 ;
792 [label="gini = 0.0\nsamples = 1\nvalue = [1, 0]\nclass = 0", fillcolor="#e58139"] ;
790 -> 792 ;
793 [label="HAIR_STYLE_CODE_CD_30 <= 0.5\ngini = 0.071\nsamples = 136\nvalue = [131, 5]\nclass = 0", fillcolor="#e68641"] ;
699 -> 793 ;
794 [label="HAIR_STYLE_CODE_CD_15 <= 0.5\ngini = 0.031\nsamples = 126\nvalue = [124, 2]\nclass = 0", fillcolor="#e5833c"] ;
793 -> 794 ;
795 [label="AGE_52.0 <= 0.5\ngini = 0.016\nsamples = 123\nvalue = [122, 1]\nclass = 0", fillcolor="#e5823b"] ;
794 -> 795 ;
796 [label="gini = 0.0\nsamples = 119\nvalue = [119, 0]\nclass = 0", fillcolor="#e58139"] ;
795 -> 796 ;
797 [label="HAIR_COLOR_CODE_CD_1 <= 0.5\ngini = 0.375\nsamples = 4\nvalue = [3, 1]\nclass = 0", fillcolor="#eeab7b"] ;
795 -> 797 ;
798 [label="gini = 0.0\nsamples = 3\nvalue = [3, 0]\nclass = 0", fillcolor="#e58139"] ;
797 -> 798 ;
799 [label="gini = 0.0\nsamples = 1\nvalue = [0, 1]\nclass = 1", fillcolor="#399de5"] ;
797 -> 799 ;
800 [label="SEX_CODE_CD_1 <= 0.5\ngini = 0.444\nsamples = 3\nvalue = [2, 1]\nclass = 0", fillcolor="#f2c09c"] ;
794 -> 800 ;
801 [label="gini = 0.0\nsamples = 1\nvalue = [0, 1]\nclass = 1", fillcolor="#399de5"] ;
800 -> 801 ;
802 [label="gini = 0.0\nsamples = 2\nvalue = [2, 0]\nclass = 0", fillcolor="#e58139"] ;
800 -> 802 ;
803 [label="OTHER_FACTOR_I <= 0.5\ngini = 0.42\nsamples = 10\nvalue = [7, 3]\nclass = 0", fillcolor="#f0b78e"] ;
793 -> 803 ;
804 [label="gini = 0.0\nsamples = 5\nvalue = [5, 0]\nclass = 0", fillcolor="#e58139"] ;
803 -> 804 ;
805 [label="BUILD_CODE_CD_3 <= 0.5\ngini = 0.48\nsamples = 5\nvalue = [2, 3]\nclass = 1", fillcolor="#bddef6"] ;
803 -> 805 ;
806 [label="gini = 0.0\nsamples = 2\nvalue = [0, 2]\nclass = 1", fillcolor="#399de5"] ;
805 -> 806 ;
807 [label="AGE_27.0 <= 0.5\ngini = 0.444\nsamples = 3\nvalue = [2, 1]\nclass = 0", fillcolor="#f2c09c"] ;
805 -> 807 ;
808 [label="gini = 0.0\nsamples = 2\nvalue = [2, 0]\nclass = 0", fillcolor="#e58139"] ;
807 -> 808 ;
809 [label="gini = 0.0\nsamples = 1\nvalue = [0, 1]\nclass = 1", fillcolor="#399de5"] ;
807 -> 809 ;
810 [label="AGE_18.0 <= 0.5\ngini = 0.073\nsamples = 159\nvalue = [153, 6]\nclass = 0", fillcolor="#e68641"] ;
698 -> 810 ;
811 [label="AGE_39.0 <= 0.5\ngini = 0.051\nsamples = 153\nvalue = [149, 4]\nclass = 0", fillcolor="#e6843e"] ;
810 -> 811 ;
812 [label="AGE_21.0 <= 0.5\ngini = 0.039\nsamples = 151\nvalue = [148, 3]\nclass = 0", fillcolor="#e6843d"] ;
811 -> 812 ;
813 [label="AGE_20.0 <= 0.5\ngini = 0.027\nsamples = 148\nvalue = [146, 2]\nclass = 0", fillcolor="#e5833c"] ;
812 -> 813 ;
814 [label="AGE_17.0 <= 0.5\ngini = 0.014\nsamples = 145\nvalue = [144, 1]\nclass = 0", fillcolor="#e5823a"] ;
813 -> 814 ;
815 [label="gini = 0.0\nsamples = 141\nvalue = [141, 0]\nclass = 0", fillcolor="#e58139"] ;
814 -> 815 ;
816 [label="OTHER_FACTOR_I <= 0.5\ngini = 0.375\nsamples = 4\nvalue = [3, 1]\nclass = 0", fillcolor="#eeab7b"] ;
814 -> 816 ;
817 [label="gini = 0.0\nsamples = 3\nvalue = [3, 0]\nclass = 0", fillcolor="#e58139"] ;
816 -> 817 ;
818 [label="gini = 0.0\nsamples = 1\nvalue = [0, 1]\nclass = 1", fillcolor="#399de5"] ;
816 -> 818 ;
819 [label="NAME_VERIFIED_I <= 0.5\ngini = 0.444\nsamples = 3\nvalue = [2, 1]\nclass = 0", fillcolor="#f2c09c"] ;
813 -> 819 ;
820 [label="gini = 0.0\nsamples = 2\nvalue = [2, 0]\nclass = 0", fillcolor="#e58139"] ;
819 -> 820 ;
821 [label="gini = 0.0\nsamples = 1\nvalue = [0, 1]\nclass = 1", fillcolor="#399de5"] ;
819 -> 821 ;
822 [label="HAIR_STYLE_CODE_CD_22 <= 0.5\ngini = 0.444\nsamples = 3\nvalue = [2, 1]\nclass = 0", fillcolor="#f2c09c"] ;
812 -> 822 ;
823 [label="gini = 0.0\nsamples = 2\nvalue = [2, 0]\nclass = 0", fillcolor="#e58139"] ;
822 -> 823 ;
824 [label="gini = 0.0\nsamples = 1\nvalue = [0, 1]\nclass = 1", fillcolor="#399de5"] ;
822 -> 824 ;
825 [label="COMPLEXION_CODE_CD_9 <= 0.5\ngini = 0.5\nsamples = 2\nvalue = [1, 1]\nclass = 0", fillcolor="#ffffff"] ;
811 -> 825 ;
826 [label="gini = 0.0\nsamples = 1\nvalue = [0, 1]\nclass = 1", fillcolor="#399de5"] ;
825 -> 826 ;
827 [label="gini = 0.0\nsamples = 1\nvalue = [1, 0]\nclass = 0", fillcolor="#e58139"] ;
825 -> 827 ;
828 [label="HAIR_STYLE_CODE_CD_9 <= 0.5\ngini = 0.444\nsamples = 6\nvalue = [4, 2]\nclass = 0", fillcolor="#f2c09c"] ;
810 -> 828 ;
829 [label="gini = 0.0\nsamples = 4\nvalue = [4, 0]\nclass = 0", fillcolor="#e58139"] ;
828 -> 829 ;
830 [label="gini = 0.0\nsamples = 2\nvalue = [0, 2]\nclass = 1", fillcolor="#399de5"] ;
828 -> 830 ;
831 [label="FITS_DESCRIPTION_I <= 0.5\ngini = 0.32\nsamples = 5\nvalue = [4, 1]\nclass = 0", fillcolor="#eca06a"] ;
697 -> 831 ;
832 [label="gini = 0.0\nsamples = 4\nvalue = [4, 0]\nclass = 0", fillcolor="#e58139"] ;
831 -> 832 ;
833 [label="gini = 0.0\nsamples = 1\nvalue = [0, 1]\nclass = 1", fillcolor="#399de5"] ;
831 -> 833 ;
834 [label="AGE_29.0 <= 0.5\ngini = 0.208\nsamples = 17\nvalue = [15, 2]\nclass = 0", fillcolor="#e89253"] ;
696 -> 834 ;
835 [label="CONTACT_HOUR_11 <= 0.5\ngini = 0.117\nsamples = 16\nvalue = [15, 1]\nclass = 0", fillcolor="#e78946"] ;
834 -> 835 ;
836 [label="gini = 0.0\nsamples = 14\nvalue = [14, 0]\nclass = 0", fillcolor="#e58139"] ;
835 -> 836 ;
837 [label="COMPLEXION_CODE_CD_10 <= 0.5\ngini = 0.5\nsamples = 2\nvalue = [1, 1]\nclass = 0", fillcolor="#ffffff"] ;
835 -> 837 ;
838 [label="gini = 0.0\nsamples = 1\nvalue = [0, 1]\nclass = 1", fillcolor="#399de5"] ;
837 -> 838 ;
839 [label="gini = 0.0\nsamples = 1\nvalue = [1, 0]\nclass = 0", fillcolor="#e58139"] ;
837 -> 839 ;
840 [label="gini = 0.0\nsamples = 1\nvalue = [0, 1]\nclass = 1", fillcolor="#399de5"] ;
834 -> 840 ;
841 [label="AGE_77.0 <= 0.5\ngini = 0.036\nsamples = 812\nvalue = [797, 15]\nclass = 0", fillcolor="#e5833d"] ;
267 -> 841 ;
842 [label="HAIR_STYLE_CODE_CD_25 <= 0.5\ngini = 0.034\nsamples = 811\nvalue = [797, 14]\nclass = 0", fillcolor="#e5833c"] ;
841 -> 842 ;
843 [label="AGE_29.0 <= 0.5\ngini = 0.029\nsamples = 803\nvalue = [791, 12]\nclass = 0", fillcolor="#e5833c"] ;
842 -> 843 ;
844 [label="CONTACT_HOUR_21 <= 0.5\ngini = 0.023\nsamples = 785\nvalue = [776, 9]\nclass = 0", fillcolor="#e5823b"] ;
843 -> 844 ;
845 [label="COMPLEXION_CODE_CD_11 <= 0.5\ngini = 0.016\nsamples = 764\nvalue = [758, 6]\nclass = 0", fillcolor="#e5823b"] ;
844 -> 845 ;
846 [label="AGE_61.0 <= 0.5\ngini = 0.013\nsamples = 761\nvalue = [756, 5]\nclass = 0", fillcolor="#e5823a"] ;
845 -> 846 ;
847 [label="HAIR_STYLE_CODE_CD_21 <= 0.5\ngini = 0.011\nsamples = 757\nvalue = [753, 4]\nclass = 0", fillcolor="#e5823a"] ;
846 -> 847 ;
848 [label="AGE_50.0 <= 0.5\ngini = 0.008\nsamples = 748\nvalue = [745, 3]\nclass = 0", fillcolor="#e5823a"] ;
847 -> 848 ;
849 [label="AGE_43.0 <= 0.5\ngini = 0.005\nsamples = 738\nvalue = [736, 2]\nclass = 0", fillcolor="#e5813a"] ;
848 -> 849 ;
850 [label="AGE_27.0 <= 0.5\ngini = 0.003\nsamples = 727\nvalue = [726, 1]\nclass = 0", fillcolor="#e58139"] ;
849 -> 850 ;
851 [label="gini = 0.0\nsamples = 706\nvalue = [706, 0]\nclass = 0", fillcolor="#e58139"] ;
850 -> 851 ;
852 [label="CAR_CAMERA_I <= 0.5\ngini = 0.091\nsamples = 21\nvalue = [20, 1]\nclass = 0", fillcolor="#e68743"] ;
850 -> 852 ;
853 [label="gini = 0.0\nsamples = 17\nvalue = [17, 0]\nclass = 0", fillcolor="#e58139"] ;
852 -> 853 ;
854 [label="RACE_CODE_CD_1 <= 0.5\ngini = 0.375\nsamples = 4\nvalue = [3, 1]\nclass = 0", fillcolor="#eeab7b"] ;
852 -> 854 ;
855 [label="gini = 0.0\nsamples = 3\nvalue = [3, 0]\nclass = 0", fillcolor="#e58139"] ;
854 -> 855 ;
856 [label="gini = 0.0\nsamples = 1\nvalue = [0, 1]\nclass = 1", fillcolor="#399de5"] ;
854 -> 856 ;
857 [label="HAIR_STYLE_CODE_CD_15 <= 0.5\ngini = 0.165\nsamples = 11\nvalue = [10, 1]\nclass = 0", fillcolor="#e88e4d"] ;
849 -> 857 ;
858 [label="gini = 0.0\nsamples = 10\nvalue = [10, 0]\nclass = 0", fillcolor="#e58139"] ;
857 -> 858 ;
859 [label="gini = 0.0\nsamples = 1\nvalue = [0, 1]\nclass = 1", fillcolor="#399de5"] ;
857 -> 859 ;
860 [label="CONTACT_HOUR_0 <= 0.5\ngini = 0.18\nsamples = 10\nvalue = [9, 1]\nclass = 0", fillcolor="#e88f4f"] ;
848 -> 860 ;
861 [label="gini = 0.0\nsamples = 9\nvalue = [9, 0]\nclass = 0", fillcolor="#e58139"] ;
860 -> 861 ;
862 [label="gini = 0.0\nsamples = 1\nvalue = [0, 1]\nclass = 1", fillcolor="#399de5"] ;
860 -> 862 ;
863 [label="COMPLEXION_CODE_CD_3 <= 0.5\ngini = 0.198\nsamples = 9\nvalue = [8, 1]\nclass = 0", fillcolor="#e89152"] ;
847 -> 863 ;
